{"learner":{"attributes":{"best_iteration":"185","best_score":"171911.71718194228","scikit_learn":"{\"_estimator_type\": \"regressor\"}"},"feature_names":["bedrooms","bathrooms","sqm_living","floors","condition","grade","yr_built","yr_renovated","avg_degree","degree_centrality","betweenness_centrality","closeness_centrality","density","sqm_above","sqm_basement","sqm_lot"],"feature_types":["int","float","float","float","int","int","int","int","float","float","float","float","float","float","float","float"],"gradient_booster":{"model":{"gbtree_model_param":{"num_parallel_tree":"1","num_trees":"216"},"iteration_indptr":[0,1,2,3,4,5,6,7,8,9,10,11,12,13,14,15,16,17,18,19,20,21,22,23,24,25,26,27,28,29,30,31,32,33,34,35,36,37,38,39,40,41,42,43,44,45,46,47,48,49,50,51,52,53,54,55,56,57,58,59,60,61,62,63,64,65,66,67,68,69,70,71,72,73,74,75,76,77,78,79,80,81,82,83,84,85,86,87,88,89,90,91,92,93,94,95,96,97,98,99,100,101,102,103,104,105,106,107,108,109,110,111,112,113,114,115,116,117,118,119,120,121,122,123,124,125,126,127,128,129,130,131,132,133,134,135,136,137,138,139,140,141,142,143,144,145,146,147,148,149,150,151,152,153,154,155,156,157,158,159,160,161,162,163,164,165,166,167,168,169,170,171,172,173,174,175,176,177,178,179,180,181,182,183,184,185,186,187,188,189,190,191,192,193,194,195,196,197,198,199,200,201,202,203,204,205,206,207,208,209,210,211,212,213,214,215,216],"tree_info":[0,0,0,0,0,0,0,0,0,0,0,0,0,0,0,0,0,0,0,0,0,0,0,0,0,0,0,0,0,0,0,0,0,0,0,0,0,0,0,0,0,0,0,0,0,0,0,0,0,0,0,0,0,0,0,0,0,0,0,0,0,0,0,0,0,0,0,0,0,0,0,0,0,0,0,0,0,0,0,0,0,0,0,0,0,0,0,0,0,0,0,0,0,0,0,0,0,0,0,0,0,0,0,0,0,0,0,0,0,0,0,0,0,0,0,0,0,0,0,0,0,0,0,0,0,0,0,0,0,0,0,0,0,0,0,0,0,0,0,0,0,0,0,0,0,0,0,0,0,0,0,0,0,0,0,0,0,0,0,0,0,0,0,0,0,0,0,0,0,0,0,0,0,0,0,0,0,0,0,0,0,0,0,0,0,0,0,0,0,0,0,0,0,0,0,0,0,0,0,0,0,0,0,0,0,0,0,0,0,0,0,0,0,0,0,0],"trees":[{"base_weights":[-2.761094E3,-9.425944E4,3.884263E5,-1.4320662E5,1.2655059E4,2.872607E5,1.056244E6,-7.43119E4,-1.7522973E5,1.4983462E5,-1.730756E4,2.1172675E5,4.9722097E5,9.2664856E5,1.7498671E6,-1.2623471E5,-4.920199E3,-1.9512666E5,-9.374285E4,6.682515E4,2.2245194E5,-5.583774E4,6.808585E4,1.7050925E5,3.706692E5,7.906793E5,4.327614E5,1.1752401E6,5.9657456E5,1.2274832E6,2.4001038E6,-1.8841375E5,-1.0139012E5,-3.018172E4,3.908885E4,-2.2692633E5,-1.646756E5,-9.89387E4,1.1291999E5,1.3941791E4,1.4706844E5,1.6682103E5,2.6400384E5,-1.0564604E5,-2.2117662E4,5.5736574E4,3.9114584E5,1.2760235E5,3.308313E5,2.8061678E5,5.1163216E5,9.469773E5,6.941424E5,4.0792794E5,8.875376E5,9.9374756E5,1.4760359E6,5.230021E5,1.0584589E6,1.4467651E6,8.328171E4,6.391397E4,2.5696795E6,-2.147221E5,-1.6115184E5,-1.3352147E5,-8.454232E4,-7.630785E3,-9.046325E4,1.0975963E5,-1.1066354E4,-2.5976331E5,-2.0539814E5,-1.3345881E5,-1.8828198E5,-6.830325E4,-1.2795308E5,1.5505292E5,-2.527661E4,6.611443E4,-7.76093E4,1.2851944E5,2.7238444E5,1.7479767E5,7.3866875E3,1.923329E5,2.9338034E5,-2.3760545E4,-1.17382484E5,-5.067566E4,4.393666E4,3.94413E4,2.359408E5,1.04296766E5,2.390519E5,2.1094231E5,5.97994E4,5.596426E5,2.7339628E5,3.4180688E5,2.008536E5,6.6720294E5,3.526046E5,6.946076E5,1.1287971E6,4.8645522E5,8.1009775E5,3.6336797E5,5.827396E5,6.01092E5,1.1425185E6,8.242402E5,1.1803605E6,1.36009E6,2.8778062E5,2.9919597E5,6.154078E5,1.4565511E5,5.778208E5,5.8563215E4,1.6004395E5,2.7415422E5,8.538063E4,-1.5116047E5,-2.3390073E5,-1.3774347E5,-2.161451E5,-1.747366E5,-1.09315414E5,-6.3374355E4,-1.4159855E5,-1.12425516E5,4.2213906E3,-1.0289693E5,9.196609E3,6.765562E4,2.2812381E5,-3.2248615E4,5.640488E4,-2.619197E5,-1.0284437E5,-1.8024288E5,-2.3171536E5,-2.061317E5,-1.2364109E5,-1.9018353E5,-3.493295E4,-8.8553414E4,-1.2005453E4,-1.3112597E5,1.2287789E5,8.186628E4,3.143276E5,1.9334176E4,-1.2416526E4,1.4202959E4,1.17736055E5,-5.5331227E4,-1.4704203E5,1.8032528E5,8.254885E4,1.4754735E3,2.94464E5,1.8000253E5,-1.9842898E4,5.1934375E4,-6.932169E3,2.1083245E5,-1.6329625E4,2.1706414E5,3.463975E5,4.6894574E4,-4.9884957E4,-9.543643E4,-1.3945097E5,1.9069215E4,-7.4533625E4,8.386792E4,-3.2196541E4,1.5788271E3,1.1270081E5,1.7231894E5,6.358958E5,1.8496245E5,7.415548E4,1.7320558E5,3.455844E5,2.418002E4,1.15594695E5,8.914686E4,6.135315E5,3.7663544E5,2.5284402E5,1.5935938E5,3.7683366E5,1.6598512E5,5.45751E5,7.146512E5,3.40012E4,3.0258528E5,7.3567456E5,1.2009474E4,7.249022E4,2.236063E4,1.2345822E6,4.983224E5,1.0675474E4,8.5527706E5,3.498948E4,2.6329075E5,4.2045572E5,6.659042E5,2.8069003E5,8.5160766E4,3.6938328E5,5.2813215E4,1.3303797E5,1.0235036E6,6.5063906E5,1.702058E5,1.0606231E6,1.4703221E6,8.456226E5,2.4551642E5,7.0047305E4,1.04848766E5,5.71268E5,1.1365474E4,6.2789387E4,-1.6831547E4,-4.134046E3,-2.3651201E4,-4.6260356E3,-1.4278933E4,8.887575E2,-5.473688E2,-2.2499338E4,-1.3947011E4,-1.901571E4,-1.4231797E4,-9.083607E3,-1.1101491E4,-5.116299E3,-1.4688994E4,1.684063E4,-1.2872227E4,1.4233964E4,1.944484E3,-5.7346616E3,3.4694011E3,-1.1518419E4,-8.561132E3,1.7041068E4,9.082972E3,-2.4951926E3,1.9360348E4,5.3180633E4,-5.1238022E3,2.943888E3,8.026772E3,-1.7895487E3,-1.166514E4,-2.6391379E4,5.1554736E3,-1.2343976E4,-1.35349795E4,-1.8437998E4,-2.3554326E4,-1.4711398E4,-2.1712463E4,9.27421E3,-9.93828E3,-1.3912444E4,-1.9210475E4,-7.7843667E3,-9.488332E3,9.1954375E3,-1.2215437E4,-7.299359E3,-5.654603E3,2.2283508E3,-2.5638748E4,-1.2787011E4,1.497821E4,4.6046313E3,4.0445575E2,1.2999929E4,3.7288215E4,4.0054734E3,-3.6796484E2,5.5694736E3,-1.288629E4,2.6076587E3,1.2661996E4,-1.3862899E3,-3.2101106E3,-1.4210382E4,-8.778862E3,-1.8528943E4,-2.1727021E3,1.9124404E4,9.486305E3,3.138497E3,5.1554736E3,3.1359943E4,2.0638312E4,1.4233349E4,-9.794526E3,3.8839646E3,1.1540602E3,1.0675474E4,2.1803076E4,-5.654527E3,6.412431E3,-9.134035E3,2.5380217E4,1.168711E4,2.701715E4,4.00297E4,-2.091039E3,2.1455098E4,-5.919768E3,1.5920633E4,-1.2262211E4,-5.465558E3,-1.5307036E4,-8.092536E3,1.1694097E4,1.8975595E2,-8.0371367E3,1.3008611E4,2.1428843E3,1.1423496E4,-7.180758E3,9.244542E3,-7.2844546E3,2.2353503E3,-1.8492217E3,1.5884159E4,4.3320355E4,9.550651E3,8.725246E4,-4.932702E3,2.4562629E4,9.645406E3,6.4675386E3,2.0612525E4,1.2069868E4,3.7654555E4,-6.8507166E2,6.6329087E3,8.233277E3,1.6914398E4,1.2315434E4,-4.0445266E3,6.4996965E4,3.38488E4,2.899586E4,6.2000812E4,3.0723494E4,2.0237875E4,2.1670291E4,3.8290535E3,3.89229E4,1.84881E4,1.19749375E4,4.5454254E4,6.225276E4,2.3587299E4,7.285925E4,2.9704734E3,3.98129E4,1.606531E4,2.029063E4,9.513321E4,1.2871445E5,2.4935475E4,5.480607E4,3.0634057E4,1.5367474E4,8.7239984E4,8.565548E4,2.511074E4,5.0096324E4,3.4279035E4,4.9751652E4,8.40362E4,1.0614828E4,3.7366035E4,7.1104736E3,4.0183668E4,-3.0325266E3,1.07513E5,7.480681E4,3.4018574E4,8.5035914E4,1.4611905E5,1.4934698E5,2.9535475E4,4.3858355E4,1.1117246E5,1.2996192E4,2.9341266E4,6.4323645E4,4.181388E4],"categories":[],"categories_nodes":[],"categories_segments":[],"categories_sizes":[],"default_left":[0,0,0,0,0,0,0,0,0,0,0,0,0,0,0,0,0,0,0,0,0,0,0,0,0,0,0,0,0,0,0,0,0,0,0,0,0,0,0,0,0,0,0,0,0,0,0,0,0,0,0,0,0,0,0,0,0,0,0,0,0,0,0,0,0,0,0,0,0,0,0,0,0,0,0,0,0,0,0,0,0,0,0,0,0,0,0,0,0,0,0,0,0,0,0,0,0,0,0,0,0,0,0,0,0,0,0,0,0,0,0,0,0,0,0,0,0,0,0,0,0,0,0,0,0,0,0,0,0,0,0,0,0,0,0,0,0,0,0,0,0,0,0,0,0,0,0,0,0,0,0,0,0,0,0,0,0,0,0,0,0,0,0,0,0,0,0,0,0,0,0,0,0,0,0,0,0,0,0,0,0,0,0,0,0,0,0,0,0,0,0,0,0,0,0,0,0,0,0,0,0,0,0,0,0,0,0,0,0,0,0,0,0,0,0,0,0,0,0,0,0,0,0,0,0,0,0,0,0,0,0,0,0,0,0,0,0,0,0,0,0,0,0,0,0,0,0,0,0,0,0,0,0,0,0,0,0,0,0,0,0,0,0,0,0,0,0,0,0,0,0,0,0,0,0,0,0,0,0,0,0,0,0,0,0,0,0,0,0,0,0,0,0,0,0,0,0,0,0,0,0,0,0,0,0,0,0,0,0,0,0,0,0,0,0,0,0,0,0,0,0,0,0,0,0,0,0,0,0,0,0,0,0,0,0,0,0,0,0,0,0,0,0,0,0,0,0,0,0,0,0,0,0,0,0,0,0,0,0,0,0,0,0,0,0,0,0,0,0,0,0,0,0,0,0,0,0,0,0,0,0,0,0,0,0,0,0,0,0,0,0,0,0,0,0,0,0,0,0,0,0,0,0,0,0],"id":0,"left_children":[1,3,5,7,9,11,13,15,17,19,21,23,25,27,29,31,33,35,37,39,41,43,45,47,49,51,53,55,57,59,61,63,65,67,69,71,73,75,77,79,81,83,85,87,89,91,93,95,97,99,101,103,105,107,109,111,113,115,117,119,-1,-1,121,123,125,127,129,131,133,135,137,139,141,143,145,147,149,151,153,155,157,159,161,163,165,167,169,171,173,175,177,179,181,-1,183,185,187,189,191,193,195,197,199,201,203,205,207,209,211,213,215,217,219,221,-1,223,225,-1,227,-1,-1,-1,-1,229,231,233,235,237,239,241,243,245,247,249,251,253,255,257,259,261,263,265,267,269,271,273,275,277,279,281,283,285,287,289,-1,291,293,295,297,299,301,-1,303,305,307,309,-1,311,313,315,317,319,321,323,325,327,329,331,333,335,337,339,341,343,-1,345,347,349,351,353,355,357,359,361,363,365,367,369,-1,371,373,-1,-1,-1,375,377,-1,379,-1,381,383,385,387,-1,389,-1,-1,391,393,-1,395,397,399,401,-1,-1,403,-1,-1,-1,-1,-1,-1,-1,-1,-1,-1,-1,-1,-1,-1,-1,-1,-1,-1,-1,-1,-1,-1,-1,-1,-1,-1,-1,-1,-1,-1,-1,-1,-1,-1,-1,-1,-1,-1,-1,-1,-1,-1,-1,-1,-1,-1,-1,-1,-1,-1,-1,-1,-1,-1,-1,-1,-1,-1,-1,-1,-1,-1,-1,-1,-1,-1,-1,-1,-1,-1,-1,-1,-1,-1,-1,-1,-1,-1,-1,-1,-1,-1,-1,-1,-1,-1,-1,-1,-1,-1,-1,-1,-1,-1,-1,-1,-1,-1,-1,-1,-1,-1,-1,-1,-1,-1,-1,-1,-1,-1,-1,-1,-1,-1,-1,-1,-1,-1,-1,-1,-1,-1,-1,-1,-1,-1,-1,-1,-1,-1,-1,-1,-1,-1,-1,-1,-1,-1,-1,-1,-1,-1,-1,-1,-1,-1,-1,-1,-1,-1,-1,-1,-1,-1,-1,-1,-1,-1,-1,-1,-1,-1,-1,-1,-1,-1,-1,-1,-1,-1,-1,-1,-1,-1,-1,-1,-1,-1],"loss_changes":[4.2106963E14,4.989481E13,1.5035587E14,1.4415663E13,1.2312819E13,3.0629727E13,2.4716362E13,7.4828344E12,7.2193703E12,3.2221304E12,8.0944604E12,9.285367E12,9.342921E12,1.973024E13,1.2339206E13,1.8161357E12,9.9062455E11,3.436041E12,9.5395774E11,1.06732034E12,6.170681E11,2.844483E12,3.0302103E12,7.7653596E12,3.5757868E12,7.157202E11,4.4038766E12,6.230689E12,3.150455E12,1.1317742E12,4.0313385E12,2.0781518E11,4.493945E11,7.6873295E11,1.1531796E12,1.1851677E12,1.3278495E12,7.530207E11,1.3201696E11,7.3592976E11,1.9744175E11,1.5767726E11,2.8465378E11,6.545652E11,1.9112424E12,2.1578142E12,2.5265444E12,5.0560605E12,2.9878838E12,8.1475613E11,2.5603646E12,6.842755E11,1.0508703E12,2.919676E12,8.470418E11,1.9056317E12,4.374936E12,1.8012439E12,1.8371104E12,1.1800779E12,0E0,0E0,2.672451E12,1.7065889E11,1.8906926E11,2.7121628E11,6.68582E11,5.134394E11,1.9177354E11,6.573531E11,2.747949E11,2.065485E11,6.6195764E11,5.4101698E11,2.974978E11,4.7661344E11,3.6549375E11,1.724324E11,2.8869636E10,2.609437E11,7.848631E10,1.97072E11,6.3915426E10,1.2412807E11,2.7520444E10,1.9645084E11,3.820151E11,1.6292597E11,2.7631236E11,1.1778486E12,9.329693E11,1.8804491E12,1.4426222E12,0E0,5.151629E11,1.9826873E12,9.829522E11,1.1369668E12,3.142771E11,5.8539377E11,8.8352306E11,6.2638994E11,8.8872845E11,1.914165E11,1.3517843E12,5.494486E10,4.7003258E11,1.7346551E12,1.8226726E12,3.8199073E11,4.5157764E11,1.0982785E12,7.558891E11,1.5354844E12,0E0,4.7423344E11,6.818072E11,0E0,1.1457475E11,0E0,0E0,0E0,0E0,7.216805E10,5.177606E10,9.1534655E10,9.010859E10,3.1124357E10,1.0050732E11,2.3342206E11,2.7243053E11,1.9269976E11,3.4978228E11,2.3561057E11,2.897078E11,2.1902223E11,2.6395332E11,1.7253409E11,8.2995266E10,1.661909E11,4.134292E10,7.682287E10,1.3244983E11,3.256877E11,2.498442E11,2.0734961E11,1.1522212E11,1.5211351E11,1.7231205E11,1.442159E11,5.5056466E9,4.8169525E10,6.5363935E10,4.388914E9,0E0,8.829583E10,5.9041907E10,8.413076E10,1.3195444E10,9.460777E10,2.7894776E10,0E0,3.4962407E10,8.589777E10,2.2137141E10,9.839992E9,0E0,1.0086318E11,3.603168E10,1.5070187E11,1.5890697E11,2.7731683E11,1.3404606E11,3.2922062E11,2.2354906E11,3.0397035E11,6.3996586E11,3.7866622E11,5.2998128E11,6.9429074E11,1.4012609E12,1.0407418E12,1.3401866E12,9.98013E10,0E0,1.115666E12,5.603066E11,3.98061E11,3.298364E11,3.142362E10,2.0091974E11,4.5306688E11,3.8797836E11,1.1666755E11,1.27902155E11,9.461938E11,1.9702219E10,4.3671093E11,0E0,6.547581E11,4.963416E11,0E0,0E0,0E0,4.5583067E11,5.173045E10,0E0,2.6237469E11,0E0,6.522667E11,1.103815E12,1.4032505E12,2.6865343E11,0E0,4.8868753E10,0E0,0E0,1.2295225E12,6.529336E11,0E0,1.7895585E12,6.1961614E11,7.038687E11,1.16836925E11,0E0,0E0,4.253276E11,0E0,0E0,0E0,0E0,0E0,0E0,0E0,0E0,0E0,0E0,0E0,0E0,0E0,0E0,0E0,0E0,0E0,0E0,0E0,0E0,0E0,0E0,0E0,0E0,0E0,0E0,0E0,0E0,0E0,0E0,0E0,0E0,0E0,0E0,0E0,0E0,0E0,0E0,0E0,0E0,0E0,0E0,0E0,0E0,0E0,0E0,0E0,0E0,0E0,0E0,0E0,0E0,0E0,0E0,0E0,0E0,0E0,0E0,0E0,0E0,0E0,0E0,0E0,0E0,0E0,0E0,0E0,0E0,0E0,0E0,0E0,0E0,0E0,0E0,0E0,0E0,0E0,0E0,0E0,0E0,0E0,0E0,0E0,0E0,0E0,0E0,0E0,0E0,0E0,0E0,0E0,0E0,0E0,0E0,0E0,0E0,0E0,0E0,0E0,0E0,0E0,0E0,0E0,0E0,0E0,0E0,0E0,0E0,0E0,0E0,0E0,0E0,0E0,0E0,0E0,0E0,0E0,0E0,0E0,0E0,0E0,0E0,0E0,0E0,0E0,0E0,0E0,0E0,0E0,0E0,0E0,0E0,0E0,0E0,0E0,0E0,0E0,0E0,0E0,0E0,0E0,0E0,0E0,0E0,0E0,0E0,0E0,0E0,0E0,0E0,0E0,0E0,0E0,0E0,0E0,0E0,0E0,0E0,0E0,0E0,0E0,0E0,0E0,0E0,0E0,0E0,0E0,0E0,0E0,0E0,0E0,0E0,0E0,0E0,0E0,0E0,0E0,0E0],"parents":[2147483647,0,0,1,1,2,2,3,3,4,4,5,5,6,6,7,7,8,8,9,9,10,10,11,11,12,12,13,13,14,14,15,15,16,16,17,17,18,18,19,19,20,20,21,21,22,22,23,23,24,24,25,25,26,26,27,27,28,28,29,29,30,30,31,31,32,32,33,33,34,34,35,35,36,36,37,37,38,38,39,39,40,40,41,41,42,42,43,43,44,44,45,45,46,46,47,47,48,48,49,49,50,50,51,51,52,52,53,53,54,54,55,55,56,56,57,57,58,58,59,59,62,62,63,63,64,64,65,65,66,66,67,67,68,68,69,69,70,70,71,71,72,72,73,73,74,74,75,75,76,76,77,77,78,78,79,79,80,80,81,81,82,82,83,83,84,84,85,85,86,86,87,87,88,88,89,89,90,90,91,91,92,92,94,94,95,95,96,96,97,97,98,98,99,99,100,100,101,101,102,102,103,103,104,104,105,105,106,106,107,107,108,108,109,109,110,110,111,111,112,112,113,113,115,115,116,116,118,118,123,123,124,124,125,125,126,126,127,127,128,128,129,129,130,130,131,131,132,132,133,133,134,134,135,135,136,136,137,137,138,138,139,139,140,140,141,141,142,142,143,143,144,144,145,145,146,146,147,147,148,148,149,149,150,150,151,151,152,152,153,153,155,155,156,156,157,157,158,158,159,159,160,160,162,162,163,163,164,164,165,165,167,167,168,168,169,169,170,170,171,171,172,172,173,173,174,174,175,175,176,176,177,177,178,178,179,179,180,180,181,181,182,182,183,183,185,185,186,186,187,187,188,188,189,189,190,190,191,191,192,192,193,193,194,194,195,195,196,196,197,197,199,199,200,200,204,204,205,205,207,207,209,209,210,210,211,211,212,212,214,214,217,217,218,218,220,220,221,221,222,222,223,223,226,226],"right_children":[2,4,6,8,10,12,14,16,18,20,22,24,26,28,30,32,34,36,38,40,42,44,46,48,50,52,54,56,58,60,62,64,66,68,70,72,74,76,78,80,82,84,86,88,90,92,94,96,98,100,102,104,106,108,110,112,114,116,118,120,-1,-1,122,124,126,128,130,132,134,136,138,140,142,144,146,148,150,152,154,156,158,160,162,164,166,168,170,172,174,176,178,180,182,-1,184,186,188,190,192,194,196,198,200,202,204,206,208,210,212,214,216,218,220,222,-1,224,226,-1,228,-1,-1,-1,-1,230,232,234,236,238,240,242,244,246,248,250,252,254,256,258,260,262,264,266,268,270,272,274,276,278,280,282,284,286,288,290,-1,292,294,296,298,300,302,-1,304,306,308,310,-1,312,314,316,318,320,322,324,326,328,330,332,334,336,338,340,342,344,-1,346,348,350,352,354,356,358,360,362,364,366,368,370,-1,372,374,-1,-1,-1,376,378,-1,380,-1,382,384,386,388,-1,390,-1,-1,392,394,-1,396,398,400,402,-1,-1,404,-1,-1,-1,-1,-1,-1,-1,-1,-1,-1,-1,-1,-1,-1,-1,-1,-1,-1,-1,-1,-1,-1,-1,-1,-1,-1,-1,-1,-1,-1,-1,-1,-1,-1,-1,-1,-1,-1,-1,-1,-1,-1,-1,-1,-1,-1,-1,-1,-1,-1,-1,-1,-1,-1,-1,-1,-1,-1,-1,-1,-1,-1,-1,-1,-1,-1,-1,-1,-1,-1,-1,-1,-1,-1,-1,-1,-1,-1,-1,-1,-1,-1,-1,-1,-1,-1,-1,-1,-1,-1,-1,-1,-1,-1,-1,-1,-1,-1,-1,-1,-1,-1,-1,-1,-1,-1,-1,-1,-1,-1,-1,-1,-1,-1,-1,-1,-1,-1,-1,-1,-1,-1,-1,-1,-1,-1,-1,-1,-1,-1,-1,-1,-1,-1,-1,-1,-1,-1,-1,-1,-1,-1,-1,-1,-1,-1,-1,-1,-1,-1,-1,-1,-1,-1,-1,-1,-1,-1,-1,-1,-1,-1,-1,-1,-1,-1,-1,-1,-1,-1,-1,-1,-1,-1,-1,-1,-1,-1],"split_conditions":[9E0,1.8952213E2,3.8833453E2,2.0669235E-3,1.8260832E-3,3.1401215E2,1.2E1,1.3470935E2,8E0,8E0,2.4340585E2,4E0,2.3283518E-3,8.844953E-2,4.552247E2,7E0,8E0,1.3285129E2,1.981E3,2.2389622E2,2.2510397E2,8E0,3.6417975E2,1E1,2.7034772E2,6.689016E1,1.934E3,4E0,5.2439023E-2,8.47931E-2,4.7194724E2,8.918688E1,1.767015E2,6.131598E2,2.25E0,7E0,4.8036305E-3,6.3274647E-3,1.700125E2,5.789715E2,8.924262E2,5E0,1.5E0,2.3528035E-3,4E0,1.965E3,2.1739302E2,5.280395E-3,2.5945725E-3,7.6923077E-3,7.950284E-3,8.114148E2,9.476106E1,4E0,1.3176432E3,1.1E1,2.001E3,1E1,2.0317886E3,4.0970224E2,8.328171E4,6.391397E4,6.7582285E3,3.7690747E2,1.6674448E-3,8E0,5.9643726E2,7E0,5E0,1.5421898E2,1.700125E2,8.498395E3,5.1667294E-3,7E0,1.994E3,4E0,8.262108E-2,2.5E0,2.75E0,4E0,4.988457E-2,4.492789E2,2E0,1.4878416E3,1.2541905E2,5.313686E-2,6.131598E1,4.492789E2,8.230616E-2,3.9607706E-3,9.2728294E-2,4E0,3.279476E2,1.04296766E5,5E0,5.295471E1,2.629155E2,1.85806E2,1.5E0,1.8952213E2,3E0,3.0472183E2,5.2439023E-2,3.1772827E2,4E0,9.2903E1,1.0265781E3,1E1,3.109835E3,2.001E3,6.67738E-2,5.773346E-2,4E0,7.2520855E-3,2.8778062E5,5E0,2.8707028E2,1.4565511E5,4E0,5.8563215E4,1.6004395E5,2.7415422E5,8.538063E4,8.36127E1,6.490348E-2,1.6319961E-3,1E0,1.083393E-3,2E0,9.011591E1,1.6452192E3,2.75E0,2E0,8.812457E-4,7.6644977E2,6.506926E2,9.314455E2,2.75E0,6.131598E2,4.5180723E-2,2E0,2.2366496E-3,3.109835E3,2.4305283E3,6.713171E2,8.639979E1,1.6443831E2,1.4214159E2,1.6258025E2,1.1427069E2,8.924262E2,7.1025714E-2,4E0,4E0,-1.2416526E4,7E0,1.0312233E2,5E0,4E0,1.767015E2,5.0519098E-2,1.4754735E3,7.580698E-4,2.5E0,4E0,2.5E0,-6.932169E3,1.7309573E-3,2.4247684E2,6.698306E2,3.8982098E2,4.059861E2,1.2348667E3,4E0,2.0050125E-2,4.8557606E-2,1.934E3,1.393545E2,2.1181883E2,8E0,8E0,6.0155317E-2,1.1760078E-2,8.2906686E-2,7.415548E4,1.950963E2,1.4307062E2,9.065475E2,2.75E0,1.5328995E2,5.0900247E-2,2.945025E2,8.768212E-2,5.47219E-2,2.5548325E2,5E0,3.5E0,3.255321E3,3.40012E4,1.6956162E-2,1.1514398E3,1.2009474E4,7.249022E4,2.236063E4,5.961252E-2,4.8557606E-2,1.0675474E4,1.8116084E2,3.498948E4,1.7094151E2,1.1393035E-2,3E0,3.1215408E2,8.5160766E4,4E0,5.2813215E4,1.3303797E5,1.5E0,7.848888E-3,1.702058E5,4E0,5.75E0,1.1301072E-2,1.0450563E-1,7.0047305E4,1.04848766E5,7.060628E1,1.1365474E4,6.2789387E4,-1.6831547E4,-4.134046E3,-2.3651201E4,-4.6260356E3,-1.4278933E4,8.887575E2,-5.473688E2,-2.2499338E4,-1.3947011E4,-1.901571E4,-1.4231797E4,-9.083607E3,-1.1101491E4,-5.116299E3,-1.4688994E4,1.684063E4,-1.2872227E4,1.4233964E4,1.944484E3,-5.7346616E3,3.4694011E3,-1.1518419E4,-8.561132E3,1.7041068E4,9.082972E3,-2.4951926E3,1.9360348E4,5.3180633E4,-5.1238022E3,2.943888E3,8.026772E3,-1.7895487E3,-1.166514E4,-2.6391379E4,5.1554736E3,-1.2343976E4,-1.35349795E4,-1.8437998E4,-2.3554326E4,-1.4711398E4,-2.1712463E4,9.27421E3,-9.93828E3,-1.3912444E4,-1.9210475E4,-7.7843667E3,-9.488332E3,9.1954375E3,-1.2215437E4,-7.299359E3,-5.654603E3,2.2283508E3,-2.5638748E4,-1.2787011E4,1.497821E4,4.6046313E3,4.0445575E2,1.2999929E4,3.7288215E4,4.0054734E3,-3.6796484E2,5.5694736E3,-1.288629E4,2.6076587E3,1.2661996E4,-1.3862899E3,-3.2101106E3,-1.4210382E4,-8.778862E3,-1.8528943E4,-2.1727021E3,1.9124404E4,9.486305E3,3.138497E3,5.1554736E3,3.1359943E4,2.0638312E4,1.4233349E4,-9.794526E3,3.8839646E3,1.1540602E3,1.0675474E4,2.1803076E4,-5.654527E3,6.412431E3,-9.134035E3,2.5380217E4,1.168711E4,2.701715E4,4.00297E4,-2.091039E3,2.1455098E4,-5.919768E3,1.5920633E4,-1.2262211E4,-5.465558E3,-1.5307036E4,-8.092536E3,1.1694097E4,1.8975595E2,-8.0371367E3,1.3008611E4,2.1428843E3,1.1423496E4,-7.180758E3,9.244542E3,-7.2844546E3,2.2353503E3,-1.8492217E3,1.5884159E4,4.3320355E4,9.550651E3,8.725246E4,-4.932702E3,2.4562629E4,9.645406E3,6.4675386E3,2.0612525E4,1.2069868E4,3.7654555E4,-6.8507166E2,6.6329087E3,8.233277E3,1.6914398E4,1.2315434E4,-4.0445266E3,6.4996965E4,3.38488E4,2.899586E4,6.2000812E4,3.0723494E4,2.0237875E4,2.1670291E4,3.8290535E3,3.89229E4,1.84881E4,1.19749375E4,4.5454254E4,6.225276E4,2.3587299E4,7.285925E4,2.9704734E3,3.98129E4,1.606531E4,2.029063E4,9.513321E4,1.2871445E5,2.4935475E4,5.480607E4,3.0634057E4,1.5367474E4,8.7239984E4,8.565548E4,2.511074E4,5.0096324E4,3.4279035E4,4.9751652E4,8.40362E4,1.0614828E4,3.7366035E4,7.1104736E3,4.0183668E4,-3.0325266E3,1.07513E5,7.480681E4,3.4018574E4,8.5035914E4,1.4611905E5,1.4934698E5,2.9535475E4,4.3858355E4,1.1117246E5,1.2996192E4,2.9341266E4,6.4323645E4,4.181388E4],"split_indices":[5,2,2,12,12,2,5,2,5,5,2,4,12,11,13,5,5,2,7,2,2,5,2,5,2,14,7,1,12,11,2,2,15,15,1,5,12,12,13,15,15,0,3,12,4,7,13,12,12,12,12,15,14,4,15,5,7,5,15,2,0,0,15,15,12,5,15,5,4,13,2,15,12,5,7,4,12,1,1,4,11,15,1,15,13,11,14,15,11,12,11,4,2,0,1,14,2,2,3,2,1,2,12,2,0,14,15,5,15,7,11,11,0,12,0,4,13,0,0,0,0,0,0,2,11,12,1,12,1,2,15,1,3,12,15,15,15,1,15,11,0,12,15,15,15,14,13,2,2,2,15,11,0,0,0,5,14,0,0,15,11,0,12,1,0,1,0,12,2,15,15,15,15,4,12,11,7,13,13,5,5,11,12,11,0,2,13,15,1,2,11,2,11,11,13,4,1,15,0,12,15,0,0,0,11,11,0,13,0,13,12,1,13,0,0,0,0,3,12,0,4,1,12,11,0,0,14,0,0,0,0,0,0,0,0,0,0,0,0,0,0,0,0,0,0,0,0,0,0,0,0,0,0,0,0,0,0,0,0,0,0,0,0,0,0,0,0,0,0,0,0,0,0,0,0,0,0,0,0,0,0,0,0,0,0,0,0,0,0,0,0,0,0,0,0,0,0,0,0,0,0,0,0,0,0,0,0,0,0,0,0,0,0,0,0,0,0,0,0,0,0,0,0,0,0,0,0,0,0,0,0,0,0,0,0,0,0,0,0,0,0,0,0,0,0,0,0,0,0,0,0,0,0,0,0,0,0,0,0,0,0,0,0,0,0,0,0,0,0,0,0,0,0,0,0,0,0,0,0,0,0,0,0,0,0,0,0,0,0,0,0,0,0,0,0,0,0,0,0,0,0,0,0,0,0],"split_type":[0,0,0,0,0,0,0,0,0,0,0,0,0,0,0,0,0,0,0,0,0,0,0,0,0,0,0,0,0,0,0,0,0,0,0,0,0,0,0,0,0,0,0,0,0,0,0,0,0,0,0,0,0,0,0,0,0,0,0,0,0,0,0,0,0,0,0,0,0,0,0,0,0,0,0,0,0,0,0,0,0,0,0,0,0,0,0,0,0,0,0,0,0,0,0,0,0,0,0,0,0,0,0,0,0,0,0,0,0,0,0,0,0,0,0,0,0,0,0,0,0,0,0,0,0,0,0,0,0,0,0,0,0,0,0,0,0,0,0,0,0,0,0,0,0,0,0,0,0,0,0,0,0,0,0,0,0,0,0,0,0,0,0,0,0,0,0,0,0,0,0,0,0,0,0,0,0,0,0,0,0,0,0,0,0,0,0,0,0,0,0,0,0,0,0,0,0,0,0,0,0,0,0,0,0,0,0,0,0,0,0,0,0,0,0,0,0,0,0,0,0,0,0,0,0,0,0,0,0,0,0,0,0,0,0,0,0,0,0,0,0,0,0,0,0,0,0,0,0,0,0,0,0,0,0,0,0,0,0,0,0,0,0,0,0,0,0,0,0,0,0,0,0,0,0,0,0,0,0,0,0,0,0,0,0,0,0,0,0,0,0,0,0,0,0,0,0,0,0,0,0,0,0,0,0,0,0,0,0,0,0,0,0,0,0,0,0,0,0,0,0,0,0,0,0,0,0,0,0,0,0,0,0,0,0,0,0,0,0,0,0,0,0,0,0,0,0,0,0,0,0,0,0,0,0,0,0,0,0,0,0,0,0,0,0,0,0,0,0,0,0,0,0,0,0,0,0,0,0,0,0,0,0,0,0,0,0,0,0,0,0,0,0,0,0,0,0,0,0,0,0,0,0,0,0],"sum_hessian":[1.1762E4,9.533E3,2.229E3,6.539E3,2.994E3,1.937E3,2.92E2,2.076E3,4.463E3,5.36E2,2.458E3,1.426E3,5.11E2,2.48E2,4.4E1,1.187E3,8.89E2,3.586E3,8.77E2,2.51E2,2.85E2,1.694E3,7.64E2,1.134E3,2.92E2,9E1,4.21E2,1.4E2,1.08E2,2.6E1,1.8E1,3.37E2,8.5E2,5.65E2,3.24E2,1.751E3,1.835E3,8.56E2,2.1E1,1.52E2,9.9E1,1.24E2,1.61E2,6.83E2,1.011E3,7.37E2,2.7E1,8.96E2,2.38E2,1.8E2,1.12E2,3.1E1,5.9E1,4.01E2,2E1,9E1,5E1,9.5E1,1.3E1,1.5E1,1.1E1,2E0,1.6E1,1.68E2,1.69E2,2.9E2,5.6E2,4.12E2,1.53E2,1.34E2,1.9E2,6.89E2,1.062E3,7.93E2,1.042E3,4.18E2,4.38E2,1.6E1,5E0,9.7E1,5.5E1,8.8E1,1.1E1,1.18E2,6E0,4.9E1,1.12E2,8.6E1,5.97E2,7.06E2,3.05E2,6.77E2,6E1,4E0,2.3E1,4.01E2,4.95E2,4.6E1,1.92E2,1E2,8E1,5.5E1,5.7E1,1.5E1,1.6E1,2.3E1,3.6E1,3.22E2,7.9E1,1.1E1,9E0,5E1,4E1,4.8E1,2E0,2.9E1,6.6E1,6E0,7E0,3E0,1.2E1,1.4E1,2E0,4.1E1,1.27E2,1.21E2,4.8E1,1.05E2,1.85E2,4.1E2,1.5E2,4.1E1,3.71E2,1.36E2,1.7E1,1E2,3.4E1,1.45E2,4.5E1,6.79E2,1E1,5.47E2,5.15E2,9.2E1,7.01E2,1.029E3,1.3E1,3.07E2,1.11E2,4.33E2,5E0,1.2E1,4E0,4E0,1E0,4.9E1,4.8E1,4.3E1,1.2E1,4E1,4.8E1,1E0,1E1,1.15E2,3E0,4E0,2E0,4.5E1,4E0,4.8E1,6.4E1,2.3E1,6.3E1,3.02E2,2.95E2,1.8E2,5.26E2,2E2,1.05E2,4.47E2,2.3E2,5.3E1,7E0,2.2E1,1E0,3.15E2,8.6E1,3.03E2,1.92E2,5E0,4.1E1,2.9E1,1.63E2,1.7E1,8.3E1,7.4E1,6E0,4.7E1,8E0,5.2E1,5E0,1E0,1.4E1,2E0,1.4E1,2.2E1,1E0,3.2E1,4E0,1.19E2,2.03E2,6.1E1,1.8E1,4E0,7E0,3E0,6E0,2.1E1,2.9E1,5E0,3.5E1,3.8E1,1E1,2.7E1,2E0,4E0,6.2E1,1E0,6E0,3.5E1,6E0,1.25E2,2E0,1.17E2,4E0,2E0,4.6E1,3.5E1,7E1,6.4E1,1.21E2,8.2E1,3.28E2,1.48E2,2E0,3.9E1,2E0,2.98E2,7.3E1,1.1E1,1.25E2,1.1E1,6E0,8E1,2E1,3.2E1,2E0,1.11E2,3.4E1,3.4E1,1.1E1,1E1,6.69E2,1E0,9E0,4.9E1,4.98E2,4.91E2,2.4E1,8.9E1,3E0,2.76E2,4.25E2,1.011E3,1.8E1,9E0,4E0,9.5E1,2.12E2,4.8E1,6.3E1,9E0,4.24E2,3E0,2E0,5E0,7E0,3E0,1E0,3E0,1E0,3E0,4.6E1,4.5E1,3E0,3.5E1,8E0,6E0,6E0,2E0,3.8E1,3.8E1,1E1,1E0,9E0,6.5E1,5E1,1E0,2E0,3E0,1E0,4.4E1,1E0,2E0,2E0,3.4E1,1.4E1,2.9E1,3.5E1,1.7E1,6E0,6.1E1,2E0,1.8E2,1.22E2,2.38E2,5.7E1,2.6E1,1.54E2,5.12E2,1.4E1,6.6E1,1.34E2,8E1,2.5E1,9.7E1,3.5E2,6E1,1.7E2,1.1E1,4.2E1,5E0,2E0,1.2E1,1E1,7.4E1,2.41E2,1.1E1,7.5E1,1.75E2,1.28E2,1.2E2,7.2E1,4E0,1E0,3.5E1,6E0,2.3E1,6E0,7.6E1,8.7E1,1.1E1,6E0,7.7E1,6E0,6.5E1,9E0,4E0,2E0,4.6E1,1E0,3E1,2.2E1,2E0,3E0,1.3E1,1E0,1.6E1,6E0,1E0,3.1E1,1E0,1.18E2,9.7E1,1.06E2,3.3E1,2.8E1,7E0,1.1E1,1E0,6E0,1E0,2E1,2.1E1,8E0,2.5E1,1E1,3.7E1,1E0,5E0,5E0,9E0,1.8E1,4E1,2.2E1],"tree_param":{"num_deleted":"0","num_feature":"16","num_nodes":"405","size_leaf_vector":"1"}},{"base_weights":[-2.2967487E2,-6.1027715E4,5.114146E5,-1.3405703E5,4.3918594E4,4.0058138E5,1.1496856E6,-1.6398262E5,-5.1359684E4,-5.4210454E3,1.703153E5,2.6636275E5,5.589088E5,9.56019E5,1.8985136E6,-1.9990711E5,-1.2246182E5,-9.366344E4,3.288237E4,1.7190133E5,-4.05971E4,4.1007488E5,1.2072133E5,4.949189E5,1.9673983E5,1.08872E6,5.0419938E5,1.7474764E6,8.476672E5,1.3330265E6,2.5574012E6,-2.341674E5,-1.8247512E5,-1.4108055E5,-7.07791E4,-1.5833492E5,-6.746176E4,6.1283824E4,-3.0020729E4,1.1639233E5,2.903329E5,-6.824158E4,7.4382607E3,3.0413353E5,4.8081375E5,9.08965E4,2.6136447E5,3.115361E5,7.058126E5,7.76893E4,2.6092342E5,2.6385453E4,1.1209498E6,3.7174556E5,6.6092125E5,1.02167575E6,2.1533692E5,3.379057E5,9.194606E5,1.7867679E6,8.814541E5,2.7631792E6,7.446368E5,-2.5077878E5,-2.109354E5,-1.4155533E5,-2.0211589E5,-1.5766303E5,-9.23119E4,-8.487741E4,2.3721566E4,-1.9158653E5,-1.27320984E5,-3.4177207E4,-1.4038645E5,-9.756507E4,7.509926E4,-8.753756E3,-1.0795463E5,7.211437E4,1.8567645E5,2.4110708E5,4.1136638E5,-9.690003E4,-3.778282E4,5.0128633E4,-3.1989896E4,3.150097E5,-1.0177698E4,4.9059597E5,-7.4007104E3,3.720667E4,1.4877802E5,2.3647078E5,4.8028366E5,2.0396105E5,4.390093E5,7.3957625E5,2.6742275E4,2.9181484E5,4.807448E4,4.3587228E5,2.2529188E5,1.9670656E4,1.138272E6,5.0278778E5,3.023119E5,8.296111E5,4.3552506E5,1.0914968E6,2.6646443E4,1.6592947E5,7.5185794E5,9.9969244E5,6.672219E5,2.0045273E5,6.10487E4,3.536185E4,9.452771E4,3.1276453E5,1.0701033E5,1.08747766E5,2.9477625E3,-2.5225542E5,-6.1819918E4,1.750742E4,-2.1254772E5,-1.7507689E5,-1.2636408E5,-2.149703E5,-1.8005262E5,-1.0969348E5,-1.6931933E5,-1.1848316E5,-5.463682E4,-8.739136E4,1.328987E5,1.7249873E5,-1.0812891E4,-8.086153E4,-1.9640745E5,5.418298E4,-1.3210748E5,-8.0788E4,-1.5251143E4,-1.723006E5,-1.16968336E5,-1.5863005E5,-6.0932695E4,5.1720234E4,1.2539316E5,-2.178249E4,7.330799E4,2.326952E4,-1.2456573E5,9.380528E4,-2.6213049E4,2.3679039E5,6.442373E4,1.4602266E5,2.874027E5,4.531747E5,5.71152E4,2.3369037E4,-1.0412732E5,-7.6982586E4,2.2013167E3,4.1491457E4,1.6748167E5,-6.855398E4,3.585852E4,2.3695394E5,3.6592803E5,5.2110138E5,2.994037E5,9.475799E3,7.9801664E4,2.7044193E4,1.7053895E5,3.6164194E5,2.106121E5,7.108202E4,3.249917E5,2.986656E5,3.1399541E4,9.055262E4,3.4343712E5,5.3827075E5,8.69669E5,7.61968E4,3.4423322E5,9.337618E4,-4.3551785E4,3.7731616E5,6.4769144E5,2.1209517E5,5.86433E5,8.49594E5,1.2671822E6,8.591231E4,4.5866316E5,7.819832E5,2.723161E5,5.6976444E5,8.783182E5,3.7547444E5,5.742357E5,1.16611914E5,3.2188125E4,2.227736E4,5.3008344E4,2.211513E4,8.292468E4,8.074631E5,1.1909816E6,1.8046232E4,6.945687E5,-2.2034924E4,-2.6116568E4,3.0512908E3,-1.3354611E4,-6.6442915E3,-2.1667377E4,-1.494978E4,-2.1539771E4,6.387685E3,-1.3238789E4,-2.1737615E4,-1.0722275E4,-1.617281E4,-2.01465E4,-1.3892102E4,-4.362583E3,-1.8527545E4,-1.4158755E4,-1.3392481E4,-4.8759507E3,-8.0912573E3,-9.680137E2,-1.0854943E4,-6.9484116E3,-1.1251416E4,2.0448412E4,2.0208463E4,-1.0605893E4,-2.7102095E3,2.2808379E4,-1.1768272E4,1.9734719E3,-2.0847197E4,-1.5124369E4,-3.6588376E3,2.086342E4,1.1392843E4,-1.3432948E4,-1.3569583E4,-6.4953413E3,-2.5969905E3,2.8811829E3,-1.2583024E4,-1.9270193E4,-2.0011963E3,-1.2323742E4,-8.765526E3,-2.0316648E4,-2.5787275E3,-8.514282E3,6.261145E3,3.953068E2,1.591721E4,7.231357E3,-6.60398E3,-7.439145E2,1.3012547E4,-4.2682754E3,-1.7575273E3,9.332435E3,-1.3281128E4,6.9645845E3,5.163308E3,1.2263326E4,1.7291826E4,-5.3142036E3,2.6468592E4,1.0120515E4,-1.0898025E4,1.0842997E4,1.8431568E4,3.8121575E3,3.1148139E4,6.5515015E3,4.983339E4,2.6334775E4,1.4447456E4,-7.8402354E3,6.728019E3,-8.064824E3,-1.2090367E4,-6.9088647E3,-1.1163644E4,-6.0194814E3,6.0508057E3,-1.1748436E3,8.580739E3,1.5922428E3,1.7629525E4,-4.846294E3,-7.7371743E3,6.846285E3,1.1331522E4,1.1891477E3,2.7122062E4,1.0401826E4,3.744603E4,1.1027925E4,3.926769E4,5.9013914E4,1.2431439E4,4.1544008E4,1.6243529E2,2.6051904E4,2.6394506E4,6.914465E3,-1.0650286E4,5.173148E3,2.5466482E4,1.3877141E4,2.0108688E4,4.494209E4,5.2129355E3,2.2707232E4,3.411481E4,7.3635796E3,-8.198843E3,3.1645953E4,1.4957679E4,-7.3780365E2,7.604222E4,2.24881E4,5.669428E4,1.3902808E4,9.602413E4,3.9608023E4,1.1146369E4,-3.2435376E3,1.9077701E4,4.2533992E4,5.7256343E3,2.2415678E4,-5.089476E3,1.4711266E4,3.9387867E4,4.175248E3,7.0211305E4,1.0615937E4,1.6655068E4,2.525828E4,6.814829E4,2.0085564E4,8.752472E4,2.3239826E4,1.2980625E5,2.3214812E4,2.1225943E4,5.488853E4,1.923831E4,9.229571E4,2.359817E4,4.344823E4,3.9469844E4,6.930337E4,7.742702E4,1.0140146E5,-8.596966E3,3.8402777E4,6.2040957E4,1.767205E4,-1.370225E3,1.2428636E4,4.866822E4,9.469803E4,9.472871E4,1.4497422E5,7.12257E4,9.964778E3],"categories":[],"categories_nodes":[],"categories_segments":[],"categories_sizes":[],"default_left":[0,0,0,0,0,0,0,0,0,0,0,0,0,0,0,0,0,0,0,0,0,0,0,0,0,0,0,0,0,0,0,0,0,0,0,0,0,0,0,0,0,0,0,0,0,0,0,0,0,0,0,0,0,0,0,0,0,0,0,0,0,0,0,0,0,0,0,0,0,0,0,0,0,0,0,0,0,0,0,0,0,0,0,0,0,0,0,0,0,0,0,0,0,0,0,0,0,0,0,0,0,0,0,0,0,0,0,0,0,0,0,0,0,0,0,0,0,0,0,0,0,0,0,0,0,0,0,0,0,0,0,0,0,0,0,0,0,0,0,0,0,0,0,0,0,0,0,0,0,0,0,0,0,0,0,0,0,0,0,0,0,0,0,0,0,0,0,0,0,0,0,0,0,0,0,0,0,0,0,0,0,0,0,0,0,0,0,0,0,0,0,0,0,0,0,0,0,0,0,0,0,0,0,0,0,0,0,0,0,0,0,0,0,0,0,0,0,0,0,0,0,0,0,0,0,0,0,0,0,0,0,0,0,0,0,0,0,0,0,0,0,0,0,0,0,0,0,0,0,0,0,0,0,0,0,0,0,0,0,0,0,0,0,0,0,0,0,0,0,0,0,0,0,0,0,0,0,0,0,0,0,0,0,0,0,0,0,0,0,0,0,0,0,0,0,0,0,0,0,0,0,0,0,0,0,0,0,0,0,0,0,0,0,0,0,0,0,0,0,0,0,0,0,0,0,0,0,0,0,0,0,0,0,0,0,0,0,0,0,0,0,0,0,0,0,0,0,0,0,0,0,0,0,0,0,0,0,0,0,0,0,0,0,0,0,0,0,0,0,0,0,0,0,0,0,0,0,0,0,0,0,0,0,0,0],"id":1,"left_children":[1,3,5,7,9,11,13,15,17,19,21,23,25,27,29,31,33,35,37,39,41,43,45,47,49,51,53,55,57,59,61,63,65,67,69,71,73,75,77,79,81,83,85,87,89,91,93,95,97,99,101,-1,103,105,107,109,-1,111,113,115,117,119,121,123,125,127,129,131,133,135,137,139,141,143,145,147,149,151,153,155,157,159,161,163,165,167,169,171,-1,173,-1,175,177,179,181,183,185,187,-1,189,191,193,195,-1,197,199,201,203,205,207,-1,209,211,213,215,-1,-1,-1,-1,-1,-1,-1,-1,217,219,-1,221,223,225,227,229,231,233,235,237,239,241,243,245,247,249,251,253,255,257,259,261,263,265,267,269,271,273,275,277,279,281,283,285,287,289,291,293,295,297,299,301,303,305,307,309,311,313,315,317,319,321,323,325,327,329,-1,331,333,335,-1,337,339,341,343,345,347,349,351,353,355,357,359,361,-1,363,365,367,369,371,373,375,-1,-1,-1,377,-1,-1,379,381,-1,383,-1,-1,-1,-1,-1,-1,-1,-1,-1,-1,-1,-1,-1,-1,-1,-1,-1,-1,-1,-1,-1,-1,-1,-1,-1,-1,-1,-1,-1,-1,-1,-1,-1,-1,-1,-1,-1,-1,-1,-1,-1,-1,-1,-1,-1,-1,-1,-1,-1,-1,-1,-1,-1,-1,-1,-1,-1,-1,-1,-1,-1,-1,-1,-1,-1,-1,-1,-1,-1,-1,-1,-1,-1,-1,-1,-1,-1,-1,-1,-1,-1,-1,-1,-1,-1,-1,-1,-1,-1,-1,-1,-1,-1,-1,-1,-1,-1,-1,-1,-1,-1,-1,-1,-1,-1,-1,-1,-1,-1,-1,-1,-1,-1,-1,-1,-1,-1,-1,-1,-1,-1,-1,-1,-1,-1,-1,-1,-1,-1,-1,-1,-1,-1,-1,-1,-1,-1,-1,-1,-1,-1,-1,-1,-1,-1,-1,-1,-1,-1,-1,-1,-1,-1,-1,-1,-1,-1,-1,-1,-1,-1,-1,-1,-1,-1,-1,-1,-1],"loss_changes":[3.6728007E14,8.088573E13,8.8249465E13,1.5392064E13,2.7010634E13,2.2589146E13,2.5014225E13,6.790704E12,5.9010953E12,1.9443036E13,1.4409502E13,9.147936E12,1.3654053E13,1.1296334E13,1.0376842E13,1.419277E12,2.0319453E12,1.856659E12,9.9158255E11,3.3584012E12,3.4544086E12,1.4125556E12,4.2086538E12,5.0011434E12,3.3952964E12,9.005674E11,9.012561E12,2.8081075E12,4.556784E12,2.9327832E12,3.9108613E12,2.6432504E11,1.2790027E12,1.2462158E12,7.534307E11,3.0251732E11,1.9030325E12,8.456514E11,2.8578834E11,1.0695297E12,8.7792445E11,1.4374986E12,1.6023294E12,4.117286E11,7.038755E11,2.586242E12,8.455748E11,9.252168E11,7.199208E11,9.8789484E11,1.7095752E12,0E0,4.6452756E11,2.0680939E12,7.3571615E12,1.3099178E11,0E0,1.1566635E12,1.6805486E12,1.337725E12,1.036769E11,5.292054E12,7.035009E11,1.1666247E11,2.544181E11,2.4828078E11,2.7241585E11,6.311568E11,3.859562E11,2.8042592E11,3.8207265E11,6.4721256E10,1.5224249E11,4.7601582E11,1.6369949E11,5.9679867E10,4.074039E11,1.4807184E11,8.355034E10,4.65279E11,8.3383026E11,4.8186943E11,6.5540666E11,7.412693E11,1.257199E12,4.5626556E11,1.2304617E12,2.4714779E11,0E0,5.496971E11,0E0,5.1188295E11,1.0576535E12,4.417158E11,3.7759746E11,6.7700104E11,1.1603474E12,1.0246202E12,0E0,1.8851509E11,5.8518235E11,3.509741E11,1.03372816E12,0E0,4.8637988E11,9.109735E11,2.1179285E12,9.55043E11,5.2572874E11,2.6661093E10,0E0,7.805577E10,2.1965046E10,2.200659E12,2.8730773E11,0E0,0E0,0E0,0E0,0E0,0E0,0E0,0E0,7.6069994E10,3.7188284E10,0E0,1.953906E11,1.359117E11,4.3132178E11,1.5503825E11,1.2829013E11,4.3806805E11,3.8660997E11,2.4540584E11,1.9412635E11,1.7659488E11,1.2841523E11,1.36812134E11,2.4355917E11,3.195503E10,4.693269E10,7.773232E10,1.0441484E11,1.2681924E11,1.8305622E11,7.245424E10,8.566866E10,1.6961995E10,1.5672762E10,1.2565119E11,1.875095E11,7.5049665E10,1.30769854E11,1.5947075E10,6.2095294E10,2.1006962E11,2.2368543E11,3.363056E11,3.3231274E11,1.6237966E11,4.0167172E11,2.2023451E11,8.235951E10,2.2923444E11,4.6308E11,2.288934E11,3.2442997E11,4.8247387E11,6.754435E10,3.943317E11,3.2166753E11,1.35777616E11,6.558738E10,6.8148E11,3.343728E11,5.1993464E11,3.173231E11,2.0991825E11,8.733013E11,2.7605467E11,3.403316E11,0E0,2.361131E10,2.0882627E11,7.4425614E10,0E0,1.2626436E12,2.0735643E11,1.035171E12,2.2770962E10,1.0554979E11,4.3120034E11,7.328939E10,2.0586535E11,1.9070373E11,3.931122E11,1.563128E11,4.9922703E10,5.616299E11,0E0,1.5730559E12,5.7050294E11,8.0487016E11,1.7964623E11,5.561815E11,2.895632E11,3.4923138E11,0E0,0E0,0E0,3.023299E10,0E0,0E0,1.5978243E12,1.2120826E12,0E0,2.341963E11,0E0,0E0,0E0,0E0,0E0,0E0,0E0,0E0,0E0,0E0,0E0,0E0,0E0,0E0,0E0,0E0,0E0,0E0,0E0,0E0,0E0,0E0,0E0,0E0,0E0,0E0,0E0,0E0,0E0,0E0,0E0,0E0,0E0,0E0,0E0,0E0,0E0,0E0,0E0,0E0,0E0,0E0,0E0,0E0,0E0,0E0,0E0,0E0,0E0,0E0,0E0,0E0,0E0,0E0,0E0,0E0,0E0,0E0,0E0,0E0,0E0,0E0,0E0,0E0,0E0,0E0,0E0,0E0,0E0,0E0,0E0,0E0,0E0,0E0,0E0,0E0,0E0,0E0,0E0,0E0,0E0,0E0,0E0,0E0,0E0,0E0,0E0,0E0,0E0,0E0,0E0,0E0,0E0,0E0,0E0,0E0,0E0,0E0,0E0,0E0,0E0,0E0,0E0,0E0,0E0,0E0,0E0,0E0,0E0,0E0,0E0,0E0,0E0,0E0,0E0,0E0,0E0,0E0,0E0,0E0,0E0,0E0,0E0,0E0,0E0,0E0,0E0,0E0,0E0,0E0,0E0,0E0,0E0,0E0,0E0,0E0,0E0,0E0,0E0,0E0,0E0,0E0,0E0,0E0,0E0,0E0,0E0,0E0,0E0,0E0,0E0,0E0,0E0,0E0,0E0,0E0,0E0,0E0,0E0,0E0,0E0,0E0,0E0,0E0,0E0,0E0,0E0,0E0],"parents":[2147483647,0,0,1,1,2,2,3,3,4,4,5,5,6,6,7,7,8,8,9,9,10,10,11,11,12,12,13,13,14,14,15,15,16,16,17,17,18,18,19,19,20,20,21,21,22,22,23,23,24,24,25,25,26,26,27,27,28,28,29,29,30,30,31,31,32,32,33,33,34,34,35,35,36,36,37,37,38,38,39,39,40,40,41,41,42,42,43,43,44,44,45,45,46,46,47,47,48,48,49,49,50,50,52,52,53,53,54,54,55,55,57,57,58,58,59,59,60,60,61,61,62,62,63,63,64,64,65,65,66,66,67,67,68,68,69,69,70,70,71,71,72,72,73,73,74,74,75,75,76,76,77,77,78,78,79,79,80,80,81,81,82,82,83,83,84,84,85,85,86,86,87,87,89,89,91,91,92,92,93,93,94,94,95,95,96,96,97,97,99,99,100,100,101,101,102,102,104,104,105,105,106,106,107,107,108,108,109,109,111,111,112,112,113,113,114,114,123,123,124,124,126,126,127,127,128,128,129,129,130,130,131,131,132,132,133,133,134,134,135,135,136,136,137,137,138,138,139,139,140,140,141,141,142,142,143,143,144,144,145,145,146,146,147,147,148,148,149,149,150,150,151,151,152,152,153,153,154,154,155,155,156,156,157,157,158,158,159,159,160,160,161,161,162,162,163,163,164,164,165,165,166,166,167,167,168,168,169,169,170,170,171,171,172,172,173,173,174,174,175,175,176,176,177,177,178,178,179,179,180,180,182,182,183,183,184,184,186,186,187,187,188,188,189,189,190,190,191,191,192,192,193,193,194,194,195,195,196,196,197,197,198,198,200,200,201,201,202,202,203,203,204,204,205,205,206,206,210,210,213,213,214,214,216,216],"right_children":[2,4,6,8,10,12,14,16,18,20,22,24,26,28,30,32,34,36,38,40,42,44,46,48,50,52,54,56,58,60,62,64,66,68,70,72,74,76,78,80,82,84,86,88,90,92,94,96,98,100,102,-1,104,106,108,110,-1,112,114,116,118,120,122,124,126,128,130,132,134,136,138,140,142,144,146,148,150,152,154,156,158,160,162,164,166,168,170,172,-1,174,-1,176,178,180,182,184,186,188,-1,190,192,194,196,-1,198,200,202,204,206,208,-1,210,212,214,216,-1,-1,-1,-1,-1,-1,-1,-1,218,220,-1,222,224,226,228,230,232,234,236,238,240,242,244,246,248,250,252,254,256,258,260,262,264,266,268,270,272,274,276,278,280,282,284,286,288,290,292,294,296,298,300,302,304,306,308,310,312,314,316,318,320,322,324,326,328,330,-1,332,334,336,-1,338,340,342,344,346,348,350,352,354,356,358,360,362,-1,364,366,368,370,372,374,376,-1,-1,-1,378,-1,-1,380,382,-1,384,-1,-1,-1,-1,-1,-1,-1,-1,-1,-1,-1,-1,-1,-1,-1,-1,-1,-1,-1,-1,-1,-1,-1,-1,-1,-1,-1,-1,-1,-1,-1,-1,-1,-1,-1,-1,-1,-1,-1,-1,-1,-1,-1,-1,-1,-1,-1,-1,-1,-1,-1,-1,-1,-1,-1,-1,-1,-1,-1,-1,-1,-1,-1,-1,-1,-1,-1,-1,-1,-1,-1,-1,-1,-1,-1,-1,-1,-1,-1,-1,-1,-1,-1,-1,-1,-1,-1,-1,-1,-1,-1,-1,-1,-1,-1,-1,-1,-1,-1,-1,-1,-1,-1,-1,-1,-1,-1,-1,-1,-1,-1,-1,-1,-1,-1,-1,-1,-1,-1,-1,-1,-1,-1,-1,-1,-1,-1,-1,-1,-1,-1,-1,-1,-1,-1,-1,-1,-1,-1,-1,-1,-1,-1,-1,-1,-1,-1,-1,-1,-1,-1,-1,-1,-1,-1,-1,-1,-1,-1,-1,-1,-1,-1,-1,-1,-1,-1,-1],"split_conditions":[2.945025E2,8E0,4.2270865E2,5.8892508E0,9E0,1E1,1.2E1,1.486448E2,1.5236092E2,1.957E3,1.97E3,1.963E3,1.966E3,1.942E3,5E0,7E0,5.4707904E0,7E0,1.948E3,2.2203818E2,2.0996078E2,1.8116084E2,1E1,9E0,9E0,4.4210525E0,3.530314E2,7.6644977E2,1E1,7.874016E-3,5.4178677E0,1.0498039E2,1.958E3,2.0345757E2,2.2510397E2,8.639979E1,1.952E3,7E0,4.878049E-3,1.5514801E2,2.6468063E2,5.3943663E0,1.986E3,2.183497E-1,5.3418296E3,5.263158E0,1.1E1,3.153822E-3,2.4291499E-2,1.9304377E-3,2.8579766E-3,2.6385453E4,2E0,9.13242E-3,1.7804155E-2,1.934E3,2.1533692E5,5.236842E0,2.245094E3,2.8400447E3,2.0810272E2,4.059118E3,5.25E0,1.995E3,8.1599347E-4,1.0683845E2,5.2707357E0,1.958E3,9.2903E2,2.1240413E3,1.6319961E-3,7.308118E-4,1.901E3,9.847718E1,1.1519972E2,6.2878547E0,2.043866E2,2.229672E2,1.952E3,7.1174377E-3,6.3626724E-3,1.4585771E2,2.1240413E3,1.962E3,1.5236092E2,5.8892508E0,5.3620415E0,5.8066783E0,-1.0177698E4,1.995E3,-7.4007104E3,2.5455421E2,1.793028E2,2.5945725E-3,1.094676E3,1.7076884E-3,2.5E0,6.50321E2,2.6742275E4,1.1414221E-3,1.923077E-2,3.227659E-2,1.670396E2,1.9670656E4,6.5747455E2,4.834171E0,1.977E3,3E0,3.9855386E2,5.6086583E-3,2.6646443E4,1.9393501E3,3.75E0,4.25E0,2.610966E-3,2.0045273E5,6.10487E4,3.536185E4,9.452771E4,3.1276453E5,1.0701033E5,1.08747766E5,2.9477625E3,1.933E3,4.5185184E0,1.750742E4,1.909E3,1.953E3,1.1012512E-3,3.372379E3,3.5064125E-3,7.5164707E-3,8.8072046E2,5.3232512E0,4.985782E0,1.207739E1,1.933E3,1.986E3,1.984E3,7.339337E1,6.4738727E0,1.75E0,1E0,7.710949E1,1.300642E2,1.3228592E-3,1.1612875E2,4.2642477E2,1.916E3,1.8709813E-3,8.918688E1,4.180635E1,1.7309573E-3,2E0,1.2655972E-1,1.5328995E2,1.0312233E2,6.5383244E0,1.75E0,2.1582495E-2,1.6957584E3,1.984E3,1.94E3,1.1160437E3,8.99301E2,1.1891584E2,1.4407078E-3,6.038695E1,1.3378032E2,3.109835E3,2.1621243E-3,3.227659E-2,6.6025133E0,2.2761235E2,4.64515E1,3.25E0,1.977E3,1.2634808E2,2.0901756E-3,2.3690265E2,2.3132848E2,7.108202E4,6.1904762E-2,7E0,3.1122504E2,9.055262E4,7.6824585E-3,6.640523E0,1.9393501E3,4.75E0,8.110068E-4,1.3443064E3,1.5886414E2,1.2938601E3,5.449591E-3,3.2144437E2,1.7279958E2,6.50321E2,3.474572E2,8.591231E4,5.3232512E0,2.5E0,1.1E1,1.3176432E3,1.1990061E3,1.968E3,5.113402E0,1.16611914E5,3.2188125E4,2.227736E4,1.9933555E-2,2.211513E4,8.292468E4,1.1E1,1.381096E3,1.8046232E4,5.75E0,-2.2034924E4,-2.6116568E4,3.0512908E3,-1.3354611E4,-6.6442915E3,-2.1667377E4,-1.494978E4,-2.1539771E4,6.387685E3,-1.3238789E4,-2.1737615E4,-1.0722275E4,-1.617281E4,-2.01465E4,-1.3892102E4,-4.362583E3,-1.8527545E4,-1.4158755E4,-1.3392481E4,-4.8759507E3,-8.0912573E3,-9.680137E2,-1.0854943E4,-6.9484116E3,-1.1251416E4,2.0448412E4,2.0208463E4,-1.0605893E4,-2.7102095E3,2.2808379E4,-1.1768272E4,1.9734719E3,-2.0847197E4,-1.5124369E4,-3.6588376E3,2.086342E4,1.1392843E4,-1.3432948E4,-1.3569583E4,-6.4953413E3,-2.5969905E3,2.8811829E3,-1.2583024E4,-1.9270193E4,-2.0011963E3,-1.2323742E4,-8.765526E3,-2.0316648E4,-2.5787275E3,-8.514282E3,6.261145E3,3.953068E2,1.591721E4,7.231357E3,-6.60398E3,-7.439145E2,1.3012547E4,-4.2682754E3,-1.7575273E3,9.332435E3,-1.3281128E4,6.9645845E3,5.163308E3,1.2263326E4,1.7291826E4,-5.3142036E3,2.6468592E4,1.0120515E4,-1.0898025E4,1.0842997E4,1.8431568E4,3.8121575E3,3.1148139E4,6.5515015E3,4.983339E4,2.6334775E4,1.4447456E4,-7.8402354E3,6.728019E3,-8.064824E3,-1.2090367E4,-6.9088647E3,-1.1163644E4,-6.0194814E3,6.0508057E3,-1.1748436E3,8.580739E3,1.5922428E3,1.7629525E4,-4.846294E3,-7.7371743E3,6.846285E3,1.1331522E4,1.1891477E3,2.7122062E4,1.0401826E4,3.744603E4,1.1027925E4,3.926769E4,5.9013914E4,1.2431439E4,4.1544008E4,1.6243529E2,2.6051904E4,2.6394506E4,6.914465E3,-1.0650286E4,5.173148E3,2.5466482E4,1.3877141E4,2.0108688E4,4.494209E4,5.2129355E3,2.2707232E4,3.411481E4,7.3635796E3,-8.198843E3,3.1645953E4,1.4957679E4,-7.3780365E2,7.604222E4,2.24881E4,5.669428E4,1.3902808E4,9.602413E4,3.9608023E4,1.1146369E4,-3.2435376E3,1.9077701E4,4.2533992E4,5.7256343E3,2.2415678E4,-5.089476E3,1.4711266E4,3.9387867E4,4.175248E3,7.0211305E4,1.0615937E4,1.6655068E4,2.525828E4,6.814829E4,2.0085564E4,8.752472E4,2.3239826E4,1.2980625E5,2.3214812E4,2.1225943E4,5.488853E4,1.923831E4,9.229571E4,2.359817E4,4.344823E4,3.9469844E4,6.930337E4,7.742702E4,1.0140146E5,-8.596966E3,3.8402777E4,6.2040957E4,1.767205E4,-1.370225E3,1.2428636E4,4.866822E4,9.469803E4,9.472871E4,1.4497422E5,7.12257E4,9.964778E3],"split_indices":[2,5,2,8,5,5,5,2,2,6,6,6,6,6,1,5,8,5,6,2,2,13,5,5,5,8,2,15,5,9,8,2,6,2,2,2,6,5,9,13,2,8,6,10,15,8,5,12,9,12,12,0,1,9,9,7,0,8,15,15,13,15,1,6,9,2,8,6,15,15,12,12,6,2,2,8,2,2,6,9,9,13,15,6,2,8,8,8,0,7,0,2,2,12,15,12,1,15,0,12,9,10,14,0,15,8,6,1,2,10,0,15,1,1,9,0,0,0,0,0,0,0,0,6,8,0,6,6,12,15,12,12,15,8,8,14,6,6,7,2,8,1,1,2,13,10,2,15,6,12,14,14,12,1,10,2,13,8,1,10,15,7,6,15,15,2,12,14,14,15,12,10,8,2,14,1,6,2,12,2,2,0,12,5,2,0,9,8,15,1,10,15,14,15,9,2,14,15,13,0,8,1,5,15,15,6,8,0,0,0,9,0,0,5,15,0,1,0,0,0,0,0,0,0,0,0,0,0,0,0,0,0,0,0,0,0,0,0,0,0,0,0,0,0,0,0,0,0,0,0,0,0,0,0,0,0,0,0,0,0,0,0,0,0,0,0,0,0,0,0,0,0,0,0,0,0,0,0,0,0,0,0,0,0,0,0,0,0,0,0,0,0,0,0,0,0,0,0,0,0,0,0,0,0,0,0,0,0,0,0,0,0,0,0,0,0,0,0,0,0,0,0,0,0,0,0,0,0,0,0,0,0,0,0,0,0,0,0,0,0,0,0,0,0,0,0,0,0,0,0,0,0,0,0,0,0,0,0,0,0,0,0,0,0,0,0,0,0,0,0,0,0,0,0,0,0,0,0,0,0,0,0,0,0,0],"split_type":[0,0,0,0,0,0,0,0,0,0,0,0,0,0,0,0,0,0,0,0,0,0,0,0,0,0,0,0,0,0,0,0,0,0,0,0,0,0,0,0,0,0,0,0,0,0,0,0,0,0,0,0,0,0,0,0,0,0,0,0,0,0,0,0,0,0,0,0,0,0,0,0,0,0,0,0,0,0,0,0,0,0,0,0,0,0,0,0,0,0,0,0,0,0,0,0,0,0,0,0,0,0,0,0,0,0,0,0,0,0,0,0,0,0,0,0,0,0,0,0,0,0,0,0,0,0,0,0,0,0,0,0,0,0,0,0,0,0,0,0,0,0,0,0,0,0,0,0,0,0,0,0,0,0,0,0,0,0,0,0,0,0,0,0,0,0,0,0,0,0,0,0,0,0,0,0,0,0,0,0,0,0,0,0,0,0,0,0,0,0,0,0,0,0,0,0,0,0,0,0,0,0,0,0,0,0,0,0,0,0,0,0,0,0,0,0,0,0,0,0,0,0,0,0,0,0,0,0,0,0,0,0,0,0,0,0,0,0,0,0,0,0,0,0,0,0,0,0,0,0,0,0,0,0,0,0,0,0,0,0,0,0,0,0,0,0,0,0,0,0,0,0,0,0,0,0,0,0,0,0,0,0,0,0,0,0,0,0,0,0,0,0,0,0,0,0,0,0,0,0,0,0,0,0,0,0,0,0,0,0,0,0,0,0,0,0,0,0,0,0,0,0,0,0,0,0,0,0,0,0,0,0,0,0,0,0,0,0,0,0,0,0,0,0,0,0,0,0,0,0,0,0,0,0,0,0,0,0,0,0,0,0,0,0,0,0,0,0,0,0,0,0,0,0,0,0,0,0,0,0,0,0,0,0,0],"sum_hessian":[1.1805E4,1.0552E4,1.253E3,6.222E3,4.33E3,1.069E3,1.84E2,4.568E3,1.654E3,3.115E3,1.215E3,5.8E2,4.89E2,1.48E2,3.6E1,2.447E3,2.121E3,1.101E3,5.53E2,5.15E2,2.6E3,2.07E2,1.008E3,1.34E2,4.46E2,4.4E1,4.45E2,1.6E1,1.32E2,2.1E1,1.5E1,8.21E2,1.626E3,1.558E3,5.63E2,3.16E2,7.85E2,3.81E2,1.72E2,3.52E2,1.63E2,1.65E3,9.5E2,8.5E1,1.22E2,8.33E2,1.75E2,7.3E1,6.1E1,1.57E2,2.89E2,2E0,4.2E1,2.43E2,2.02E2,7E0,9E0,1.7E1,1.15E2,9E0,1.2E1,1.3E1,2E0,4.73E2,3.48E2,5.3E2,1.096E3,1.161E3,3.97E2,4.9E2,7.3E1,1.5E2,1.66E2,5.4E2,2.45E2,3E1,3.51E2,1.36E2,3.6E1,2.16E2,1.36E2,1.18E2,4.5E1,8.49E2,8.01E2,4.56E2,4.94E2,8.3E1,2E0,1.2E2,2E0,4.33E2,4E2,1.59E2,1.6E1,4.1E1,3.2E1,5.6E1,5E0,1.8E1,1.39E2,4.7E1,2.42E2,1E0,4.1E1,8.2E1,1.61E2,1.14E2,8.8E1,6E0,1E0,1.3E1,4E0,8.5E1,3E1,7E0,2E0,2E0,1E1,1E1,3E0,1E0,1E0,4.69E2,4E0,1E0,3.47E2,1.62E2,3.68E2,6.87E2,4.09E2,2.29E2,9.32E2,2.33E2,1.64E2,4.85E2,5E0,1.3E1,6E1,7E0,1.43E2,4E0,1.62E2,1.55E2,3.85E2,1.01E2,1.44E2,1E1,2E1,2.41E2,1.1E2,1.18E2,1.8E1,4E0,3.2E1,1.77E2,3.9E1,9.5E1,4.1E1,4E1,7.8E1,4E1,5E0,4.8E1,8.01E2,4.04E2,3.97E2,4.26E2,3E1,3.21E2,1.73E2,3.5E1,4.8E1,1.02E2,1.8E1,2.63E2,1.7E2,6.1E1,3.39E2,2.5E1,1.34E2,5E0,1.1E1,2.6E1,1.5E1,4E0,2.8E1,2.4E1,3.2E1,4E0,1.4E1,9.3E1,4.6E1,3.9E1,8E0,2.35E2,7E0,1.5E1,2.6E1,7E0,7.5E1,8E0,1.53E2,2E1,9.4E1,6.4E1,2.4E1,5E0,1E0,8E0,5E0,1E0,3E0,4.5E1,4E1,2E0,2.8E1,1.08E2,3.61E2,2E0,2E0,1E1,3.37E2,1.02E2,6E1,1.1E1,3.57E2,6.71E2,1.6E1,2.25E2,1.84E2,1.58E2,7.1E1,5.88E2,3.44E2,1.9E2,4.3E1,1.03E2,6.1E1,2.2E2,2.65E2,1E0,4E0,1.2E1,1E0,5.7E1,3E0,5E0,2E0,1.1E2,3.3E1,3E0,1E0,1E0,1.61E2,3.3E1,1.22E2,3.1E2,7.5E1,3.3E1,6.8E1,9E0,1.35E2,5E0,5E0,9E0,1.1E1,1.96E2,4.5E1,6.6E1,4.4E1,2.8E1,9E1,1.2E1,6E0,3E0,1E0,3.1E1,1E0,7.3E1,1.04E2,4E0,3.5E1,7.8E1,1.7E1,8E0,3.3E1,2.9E1,1.1E1,7E1,8E0,3.1E1,9E0,3E0,2E0,3.4E1,1.4E1,5.4E2,2.61E2,1.3E2,2.74E2,7.6E1,3.21E2,1.55E2,2.71E2,2.9E1,1E0,3.02E2,1.9E1,4E1,1.33E2,2.7E1,8E0,4.6E1,2E0,3.8E1,6.4E1,8E0,1E1,2.56E2,7E0,8E0,1.62E2,9E0,5.2E1,9.1E1,2.48E2,1E1,1.5E1,1.3E1,1.21E2,1E1,1E0,1E0,2.5E1,3E0,1.2E1,5E0,2.3E1,2.2E1,2E0,2.6E1,6E0,3E0,1E0,6E0,8E0,7.4E1,1.9E1,4.5E1,1E0,3.7E1,2E0,7E0,1E0,1.13E2,1.22E2,5E0,2E0,1.4E1,1E0,2.5E1,1E0,2.1E1,5.4E1,2E0,6E0,1.27E2,2.6E1,1E1,1E1,5.7E1,3.7E1,1E0,6.3E1,2.1E1,3E0,3E0,2E0,1.5E1,3E1,2.3E1,1.7E1,2.7E1,1E0],"tree_param":{"num_deleted":"0","num_feature":"16","num_nodes":"385","size_leaf_vector":"1"}},{"base_weights":[2.3716255E3,-7.600177E4,3.2769866E5,-1.1728191E5,7.4847896E3,2.3885155E5,8.98825E5,-1.4670534E5,-4.7936816E4,-2.0375592E4,1.2576328E5,4.7334362E5,1.8851888E5,7.7184606E5,1.5568388E6,-1.6230302E5,-7.495208E4,-8.950205E4,4.100957E3,-4.8772586E4,6.5427863E4,8.7407336E4,2.0016652E5,3.2950178E5,6.410483E5,1.1869604E5,3.3658322E5,9.579239E5,4.8172922E5,1.083815E6,2.044439E6,-1.8445036E5,-1.3541873E5,2.2820826E4,-9.495198E4,-1.3904316E5,-7.096863E4,4.631366E4,-3.332612E4,-9.272502E4,-1.877458E4,1.43445E5,-2.9148386E3,1.1878257E5,4.172463E4,1.18757945E5,2.4180712E5,3.513053E5,1.4604262E5,6.605681E5,1.172447E5,7.104723E4,1.9426075E5,2.9028397E5,5.3788006E5,7.4061944E5,1.1267515E6,4.089046E5,7.8600225E5,9.140697E5,2.748596E5,5.9017062E4,2.2330708E6,-2.1118267E5,-1.6802483E5,-1.5160822E5,-8.95412E4,-4.260094E3,1.28395125E5,-1.15371375E5,-5.331396E4,-1.4360694E5,-2.2489514E4,-3.8141484E4,-1.0490775E5,1.9908379E4,1.4782781E5,-2.109964E4,-9.305476E4,-1.1261916E5,-6.337578E4,9.733014E4,-3.972355E4,1.1972902E5,4.8414575E5,-1.0164734E4,1.13591734E5,7.5234625E4,1.7828595E5,4.71524E4,-1.4030888E5,5.9311734E4,1.6882145E5,2.6274753E5,1.0930937E5,2.4024139E5,3.8701797E5,2.0586444E5,-1.155617E4,5.798354E5,8.8582875E5,-1.617165E4,3.0052373E4,2.5158021E4,1.3475675E5,3.7065016E5,1.5961567E5,3.977474E5,2.2616228E5,7.504214E5,4.4075575E5,4.596629E5,8.8942825E5,1.1365498E6,1.4205003E4,2.7960197E5,5.506126E5,5.314443E5,1.069589E5,5.3861044E5,1.3072212E6,2.5069785E6,9.099513E4,-8.55049E4,-2.1341764E5,-1.267993E5,-1.8575672E5,-1.1612454E5,-1.6127889E5,-9.218683E4,1.1586712E5,1.8478123E4,-6.5511277E4,4.9767914E4,6.4173883E4,-3.729651E4,-1.19723266E5,-1.0336073E5,-3.1798576E4,-8.72363E4,-1.5038347E5,-9.229295E4,2.1768514E4,-8.2863305E4,-2.4048484E4,-1.4296816E5,-8.8406875E4,-6.922574E4,3.1574053E4,9.628364E4,2.3396161E5,-3.1606242E4,4.4568277E4,-5.6849066E4,-1.9158823E5,-1.3675825E5,-7.783555E4,1.0163252E5,-6.7429625E4,5.294029E4,2.0724598E5,-6.4093613E4,1.9576654E4,2.2818303E5,7.725802E4,1.03339914E5,3.1657328E5,1.5190298E4,-5.8270566E4,-7.2464917E3,2.3515461E5,8.438801E4,-3.8116984E4,1.480507E5,2.42892E5,1.5486155E4,6.9799195E4,-3.1071921E3,-1.5985013E4,8.5491836E4,-7.711072E4,2.2952986E5,1.14236695E5,2.0377453E5,3.0987328E5,2.8304428E4,6.2000605E4,1.17680945E5,2.9351356E5,2.648351E5,4.1291653E5,4.230707E4,2.9976816E5,-6.1935625E4,1.4536028E4,3.9868156E5,6.6876356E5,3.0373514E4,9.624974E5,-1.1099583E5,1.8156254E4,-4.847865E3,5.672753E4,2.2377918E4,1.662634E5,2.805239E5,4.7498562E4,1.2073144E5,2.3327467E5,3.1821206E5,6.0490756E5,3.70413E5,1.9733248E5,2.3779283E4,8.0042494E5,3.431062E5,5.562634E5,8.69122E4,2.7289612E5,9.862797E5,3.0609906E5,8.843525E5,1.2145844E6,2.0447888E5,4.262326E5,8.641562E4,4.811305E5,5.461797E3,5.698269E5,5.987897E5,9.829698E3,1.5639108E5,7.8988E4,2.8347828E5,1.4881746E6,-1.1539968E4,2.5555642E3,-2.2092586E4,-1.7340887E4,-1.4454261E4,-9.534974E3,-1.9654309E4,-1.5178111E4,-1.6981049E4,-9.224921E3,-1.7154701E4,-1.2869594E4,-8.1476577E3,-1.3690769E4,2.0339568E4,-3.946002E3,-1.5087451E3,7.3102837E3,-8.625751E3,2.6806473E4,1.0299565E4,-7.5927666E3,8.839123E3,-5.206898E3,-2.3882857E4,-1.1684483E4,-1.1374836E4,-5.6653213E3,-2.0792214E3,-1.2680474E4,-3.3402285E3,-1.1786659E4,-1.5155541E4,6.7783765E3,-1.1860658E4,-2.3170884E3,-1.1823553E4,-6.5262847E3,-1.8722528E3,-1.0674421E4,-1.6136394E4,-1.1045288E4,-4.1192197E3,-9.753806E3,1.2659601E4,-9.679796E3,-1.960743E3,3.7091797E3,1.4770557E4,5.1936646E3,2.519748E4,-1.4421042E4,-4.7677656E3,-9.988847E2,-1.2328303E3,7.5052593E3,-8.283929E3,5.9368164E3,-2.0318678E4,1.4391829E3,-1.1522788E4,-1.5375831E4,-8.21731E3,2.2282107E4,3.6502732E3,2.7877053E4,-1.3095585E4,-5.753331E3,-5.666418E3,7.293234E3,2.7363521E4,3.4095442E3,-7.841697E3,2.8827274E2,-8.321884E2,1.0964242E4,8.736062E3,3.1920717E4,-1.00714795E3,1.0838913E4,1.5216089E4,5.062234E4,-1.00242365E3,5.1955894E3,-7.5899487E3,3.7028835E3,3.550943E3,-6.5655483E3,2.757991E4,4.838445E3,-4.8273257E2,9.281703E3,-9.332616E3,8.183062E3,1.5680305E4,-3.5563743E3,1.799599E4,3.3523293E4,2.867399E2,2.1666941E4,1.0604793E4,2.518327E3,1.484263E4,2.508094E3,-2.804094E2,-9.141123E3,2.5693023E4,7.624612E3,1.2921822E4,-2.371902E3,-1.1115752E4,2.1181396E4,1.1484073E4,3.326076E4,1.1181201E3,1.0593105E4,5.4461616E3,1.6619016E4,3.1592115E4,1.1829136E4,1.3725799E4,3.280186E4,3.7235168E4,5.309278E4,1.197776E4,-4.574022E3,3.2247691E4,4.769472E3,6.526605E3,-1.0042917E4,5.2782438E4,3.2704229E4,4.2685137E4,7.406512E4,7.472699E4,1.2526902E5,-1.3779133E4,-1.5304657E3,-1.4924995E3,1.5930948E4,3.7154137E4,4.818933E3,-9.758716E3,6.109349E3,2.6252701E4,1.4194372E4,1.1606283E4,3.0070229E4,3.0431766E4,1.0619468E4,6.4830508E4,2.1762678E4,2.4350477E4,4.242973E4,2.2588854E4,6.3798934E4,3.964237E4,8.824461E3,1.5740241E4,2.5906896E4,8.4641086E4,1.6572988E4,3.5631855E4,-8.608831E3,7.237012E4,3.4057887E4,-2.931071E3,3.0810307E4,1.5326211E5,8.800515E4,3.6205902E4,-4.2810283E3,1.278201E5,6.820585E4,4.0087684E4,1.2485885E5,2.085802E2,2.40546E4,1.414357E4,4.856455E4,1.2064659E4,4.9932207E4,6.435601E4,1.5868494E4,7.743074E4,3.9230266E4,1.774608E5,2.800375E3],"categories":[],"categories_nodes":[],"categories_segments":[],"categories_sizes":[],"default_left":[0,0,0,0,0,0,0,0,0,0,0,0,0,0,0,0,0,0,0,0,0,0,0,0,0,0,0,0,0,0,0,0,0,0,0,0,0,0,0,0,0,0,0,0,0,0,0,0,0,0,0,0,0,0,0,0,0,0,0,0,0,0,0,0,0,0,0,0,0,0,0,0,0,0,0,0,0,0,0,0,0,0,0,0,0,0,0,0,0,0,0,0,0,0,0,0,0,0,0,0,0,0,0,0,0,0,0,0,0,0,0,0,0,0,0,0,0,0,0,0,0,0,0,0,0,0,0,0,0,0,0,0,0,0,0,0,0,0,0,0,0,0,0,0,0,0,0,0,0,0,0,0,0,0,0,0,0,0,0,0,0,0,0,0,0,0,0,0,0,0,0,0,0,0,0,0,0,0,0,0,0,0,0,0,0,0,0,0,0,0,0,0,0,0,0,0,0,0,0,0,0,0,0,0,0,0,0,0,0,0,0,0,0,0,0,0,0,0,0,0,0,0,0,0,0,0,0,0,0,0,0,0,0,0,0,0,0,0,0,0,0,0,0,0,0,0,0,0,0,0,0,0,0,0,0,0,0,0,0,0,0,0,0,0,0,0,0,0,0,0,0,0,0,0,0,0,0,0,0,0,0,0,0,0,0,0,0,0,0,0,0,0,0,0,0,0,0,0,0,0,0,0,0,0,0,0,0,0,0,0,0,0,0,0,0,0,0,0,0,0,0,0,0,0,0,0,0,0,0,0,0,0,0,0,0,0,0,0,0,0,0,0,0,0,0,0,0,0,0,0,0,0,0,0,0,0,0,0,0,0,0,0,0,0,0,0,0,0,0,0,0,0,0,0,0,0,0,0,0,0,0,0,0,0,0,0,0,0,0,0,0,0,0,0,0,0,0,0,0,0,0,0,0,0,0,0,0,0,0,0,0,0,0,0,0,0,0,0,0,0,0,0,0],"id":2,"left_children":[1,3,5,7,9,11,13,15,17,19,21,23,25,27,29,31,33,35,37,39,41,43,45,47,49,51,53,55,57,59,61,63,65,67,69,71,73,75,77,79,81,83,85,87,89,91,93,95,97,99,101,103,105,107,109,111,113,115,117,119,-1,-1,121,123,125,127,129,131,133,135,137,139,141,143,145,147,149,151,153,155,157,159,161,163,165,167,169,171,173,175,177,179,181,183,185,187,189,191,193,195,197,199,-1,201,203,205,207,209,211,213,215,217,219,221,-1,223,225,227,-1,229,231,233,-1,235,237,239,241,243,245,247,249,251,253,-1,255,257,259,261,263,265,267,269,-1,271,273,275,277,279,281,283,285,287,289,291,293,295,297,299,301,303,305,307,309,311,313,-1,315,317,319,321,323,325,327,329,331,333,335,-1,-1,337,339,341,343,345,347,-1,349,351,353,355,357,359,361,363,-1,365,367,-1,369,371,-1,373,375,377,379,381,-1,383,385,387,389,391,393,-1,395,397,399,-1,401,403,405,407,409,411,413,-1,415,-1,417,419,-1,-1,-1,-1,421,-1,-1,-1,-1,-1,-1,-1,-1,-1,-1,-1,-1,-1,-1,-1,-1,-1,-1,-1,-1,-1,-1,-1,-1,-1,-1,-1,-1,-1,-1,-1,-1,-1,-1,-1,-1,-1,-1,-1,-1,-1,-1,-1,-1,-1,-1,-1,-1,-1,-1,-1,-1,-1,-1,-1,-1,-1,-1,-1,-1,-1,-1,-1,-1,-1,-1,-1,-1,-1,-1,-1,-1,-1,-1,-1,-1,-1,-1,-1,-1,-1,-1,-1,-1,-1,-1,-1,-1,-1,-1,-1,-1,-1,-1,-1,-1,-1,-1,-1,-1,-1,-1,-1,-1,-1,-1,-1,-1,-1,-1,-1,-1,-1,-1,-1,-1,-1,-1,-1,-1,-1,-1,-1,-1,-1,-1,-1,-1,-1,-1,-1,-1,-1,-1,-1,-1,-1,-1,-1,-1,-1,-1,-1,-1,-1,-1,-1,-1,-1,-1,-1,-1,-1,-1,-1,-1,-1,-1,-1,-1,-1,-1,-1,-1,-1,-1,-1,-1,-1,-1,-1,-1,-1,-1,-1,-1,-1,-1,-1,-1,-1,-1,-1,-1,-1,-1,-1,-1],"loss_changes":[3.0180722E14,3.2875487E13,1.1639254E14,1.3016645E13,1.0405774E13,2.3397958E13,2.4616521E13,5.002907E12,4.1164845E12,6.231039E12,1.7004967E12,8.2559254E12,1.691481E13,1.3628451E13,9.085886E12,2.1661483E12,1.5704365E12,9.615526E11,1.3381372E12,2.5310695E12,3.3915082E12,5.669328E11,6.6282376E11,7.127045E11,1.5687074E12,4.004432E12,4.736808E12,4.962063E12,1.9830879E12,5.117485E12,4.9914986E12,8.4928784E11,1.2238182E12,3.9223673E11,5.600974E11,1.4943257E11,8.561028E11,1.0639001E12,3.259282E11,4.4770315E11,2.7839562E12,2.3418094E12,2.8833923E11,5.981219E11,1.6865372E11,2.0128897E11,3.4306995E11,5.8130747E11,2.0979161E11,2.3051727E12,1.7602691E11,2.0021851E12,2.5746882E12,2.8661692E12,1.6716126E12,2.6013954E12,6.779589E11,1.421845E12,8.031694E11,3.1338413E12,0E0,0E0,4.9670206E12,1.9606693E11,8.923969E11,4.0334734E11,2.4816124E11,1.544122E11,6.3210665E11,1.470738E11,2.3468068E11,9.231244E10,2.2127102E11,2.4633154E11,2.2538433E11,3.3180536E11,3.4152828E11,2.5944868E11,2.6023631E11,3.7811074E11,2.1889981E11,8.428792E11,1.4016049E12,1.2674867E12,1.4216085E12,3.9241685E11,2.9549288E11,1.4639864E11,1.5742403E11,1.13661346E11,5.706285E9,1.2802515E11,9.970188E10,2.5645757E11,1.4683478E11,2.5273749E11,2.9251915E11,2.3305604E11,6.4340537E10,1.6182128E12,1.448161E12,1.1390258E11,0E0,3.7918343E11,1.01245465E12,5.2499055E11,1.00866825E12,2.4272857E12,1.0539185E12,5.530305E11,5.874112E11,1.8276003E12,2.2969267E12,6.183746E11,0E0,4.3056575E11,4.5565556E11,1.8849884E11,0E0,3.3860642E11,3.582502E11,1.1248452E12,0E0,5.2751057E10,1.8668637E11,1.9826527E11,2.9046604E11,3.2656746E11,3.004443E11,1.9576101E11,8.959937E10,1.4961723E11,2.3073595E11,0E0,1.4379498E11,5.1020382E10,1.16771E11,2.5577652E10,1.6048831E11,4.882945E10,7.291378E10,1.5440298E10,0E0,5.0804818E10,1.3057204E11,4.976699E10,1.1109283E11,2.1202605E11,8.008352E10,1.1319034E11,2.4069983E11,1.1174111E11,9.111685E10,1.7708718E11,5.070553E10,8.183978E10,2.6869957E11,8.21198E10,1.873551E11,2.8022604E11,5.654366E11,6.59283E11,7.120074E11,9.719369E11,5.5026175E11,0E0,4.2186585E11,1.9612356E11,1.892933E11,2.9802019E10,6.2567416E10,9.670387E10,8.048122E10,1.18070575E11,1.1400787E11,1.7200913E11,1.4773551E11,0E0,0E0,1.0653326E11,6.1194076E9,5.18106E10,4.8534225E10,1.6026593E11,2.3670712E11,0E0,3.6768387E10,3.694982E10,8.04187E10,1.564959E11,2.953807E11,5.322614E10,4.1862234E10,3.593328E10,0E0,2.0669897E11,1.02292154E12,0E0,1.1874557E12,8.1475215E9,0E0,3.4315007E11,5.062447E11,3.03211E11,4.8714272E11,9.784184E10,0E0,6.055141E11,6.6421155E11,8.239469E11,3.9504577E11,2.8795155E11,5.212744E11,0E0,6.185854E11,2.5750195E11,8.3693457E11,0E0,2.2182612E11,9.146519E11,1.7169947E11,1.0403489E12,1.242638E12,2.4038959E11,1.8512164E11,0E0,1.6928054E11,0E0,2.3133998E11,1.6738471E11,0E0,0E0,0E0,0E0,2.4597538E12,0E0,0E0,0E0,0E0,0E0,0E0,0E0,0E0,0E0,0E0,0E0,0E0,0E0,0E0,0E0,0E0,0E0,0E0,0E0,0E0,0E0,0E0,0E0,0E0,0E0,0E0,0E0,0E0,0E0,0E0,0E0,0E0,0E0,0E0,0E0,0E0,0E0,0E0,0E0,0E0,0E0,0E0,0E0,0E0,0E0,0E0,0E0,0E0,0E0,0E0,0E0,0E0,0E0,0E0,0E0,0E0,0E0,0E0,0E0,0E0,0E0,0E0,0E0,0E0,0E0,0E0,0E0,0E0,0E0,0E0,0E0,0E0,0E0,0E0,0E0,0E0,0E0,0E0,0E0,0E0,0E0,0E0,0E0,0E0,0E0,0E0,0E0,0E0,0E0,0E0,0E0,0E0,0E0,0E0,0E0,0E0,0E0,0E0,0E0,0E0,0E0,0E0,0E0,0E0,0E0,0E0,0E0,0E0,0E0,0E0,0E0,0E0,0E0,0E0,0E0,0E0,0E0,0E0,0E0,0E0,0E0,0E0,0E0,0E0,0E0,0E0,0E0,0E0,0E0,0E0,0E0,0E0,0E0,0E0,0E0,0E0,0E0,0E0,0E0,0E0,0E0,0E0,0E0,0E0,0E0,0E0,0E0,0E0,0E0,0E0,0E0,0E0,0E0,0E0,0E0,0E0,0E0,0E0,0E0,0E0,0E0,0E0,0E0,0E0,0E0,0E0,0E0,0E0,0E0,0E0,0E0,0E0,0E0,0E0,0E0,0E0,0E0,0E0,0E0,0E0,0E0,0E0,0E0,0E0,0E0,0E0,0E0,0E0],"parents":[2147483647,0,0,1,1,2,2,3,3,4,4,5,5,6,6,7,7,8,8,9,9,10,10,11,11,12,12,13,13,14,14,15,15,16,16,17,17,18,18,19,19,20,20,21,21,22,22,23,23,24,24,25,25,26,26,27,27,28,28,29,29,30,30,31,31,32,32,33,33,34,34,35,35,36,36,37,37,38,38,39,39,40,40,41,41,42,42,43,43,44,44,45,45,46,46,47,47,48,48,49,49,50,50,51,51,52,52,53,53,54,54,55,55,56,56,57,57,58,58,59,59,62,62,63,63,64,64,65,65,66,66,67,67,68,68,69,69,70,70,71,71,72,72,73,73,74,74,75,75,76,76,77,77,78,78,79,79,80,80,81,81,82,82,83,83,84,84,85,85,86,86,87,87,88,88,89,89,90,90,91,91,92,92,93,93,94,94,95,95,96,96,97,97,98,98,99,99,100,100,101,101,103,103,104,104,105,105,106,106,107,107,108,108,109,109,110,110,111,111,112,112,113,113,115,115,116,116,117,117,119,119,120,120,121,121,123,123,124,124,125,125,126,126,127,127,128,128,129,129,130,130,131,131,132,132,134,134,135,135,136,136,137,137,138,138,139,139,140,140,141,141,143,143,144,144,145,145,146,146,147,147,148,148,149,149,150,150,151,151,152,152,153,153,154,154,155,155,156,156,157,157,158,158,159,159,160,160,161,161,162,162,163,163,164,164,166,166,167,167,168,168,169,169,170,170,171,171,172,172,173,173,174,174,175,175,176,176,179,179,180,180,181,181,182,182,183,183,184,184,186,186,187,187,188,188,189,189,190,190,191,191,192,192,193,193,195,195,196,196,198,198,199,199,201,201,202,202,203,203,204,204,205,205,207,207,208,208,209,209,210,210,211,211,212,212,214,214,215,215,216,216,218,218,219,219,220,220,221,221,222,222,223,223,224,224,226,226,228,228,229,229,234,234],"right_children":[2,4,6,8,10,12,14,16,18,20,22,24,26,28,30,32,34,36,38,40,42,44,46,48,50,52,54,56,58,60,62,64,66,68,70,72,74,76,78,80,82,84,86,88,90,92,94,96,98,100,102,104,106,108,110,112,114,116,118,120,-1,-1,122,124,126,128,130,132,134,136,138,140,142,144,146,148,150,152,154,156,158,160,162,164,166,168,170,172,174,176,178,180,182,184,186,188,190,192,194,196,198,200,-1,202,204,206,208,210,212,214,216,218,220,222,-1,224,226,228,-1,230,232,234,-1,236,238,240,242,244,246,248,250,252,254,-1,256,258,260,262,264,266,268,270,-1,272,274,276,278,280,282,284,286,288,290,292,294,296,298,300,302,304,306,308,310,312,314,-1,316,318,320,322,324,326,328,330,332,334,336,-1,-1,338,340,342,344,346,348,-1,350,352,354,356,358,360,362,364,-1,366,368,-1,370,372,-1,374,376,378,380,382,-1,384,386,388,390,392,394,-1,396,398,400,-1,402,404,406,408,410,412,414,-1,416,-1,418,420,-1,-1,-1,-1,422,-1,-1,-1,-1,-1,-1,-1,-1,-1,-1,-1,-1,-1,-1,-1,-1,-1,-1,-1,-1,-1,-1,-1,-1,-1,-1,-1,-1,-1,-1,-1,-1,-1,-1,-1,-1,-1,-1,-1,-1,-1,-1,-1,-1,-1,-1,-1,-1,-1,-1,-1,-1,-1,-1,-1,-1,-1,-1,-1,-1,-1,-1,-1,-1,-1,-1,-1,-1,-1,-1,-1,-1,-1,-1,-1,-1,-1,-1,-1,-1,-1,-1,-1,-1,-1,-1,-1,-1,-1,-1,-1,-1,-1,-1,-1,-1,-1,-1,-1,-1,-1,-1,-1,-1,-1,-1,-1,-1,-1,-1,-1,-1,-1,-1,-1,-1,-1,-1,-1,-1,-1,-1,-1,-1,-1,-1,-1,-1,-1,-1,-1,-1,-1,-1,-1,-1,-1,-1,-1,-1,-1,-1,-1,-1,-1,-1,-1,-1,-1,-1,-1,-1,-1,-1,-1,-1,-1,-1,-1,-1,-1,-1,-1,-1,-1,-1,-1,-1,-1,-1,-1,-1,-1,-1,-1,-1,-1,-1,-1,-1,-1,-1,-1,-1,-1,-1,-1,-1],"split_conditions":[9E0,1.8673503E2,3.8833453E2,5.9081273E0,5.9081273E0,1.974E3,4.552247E2,8E0,1.3192226E2,2.5176714E2,2.3597362E2,2.8335416E2,1E1,8.844953E-2,1.2E1,1.3656741E2,1.963E3,7E0,1.943E3,8E0,1.977E3,1.948E3,8E0,1.969E3,4.370529E3,2.7685095E2,1.1E1,1.1E1,4E0,9.327461E2,4.7194724E2,7E0,5.4707904E0,1.6443831E2,5.3495936E0,1.1984487E2,1.952E3,8E0,5.7414056E2,5.283019E0,1.964E3,3.595346E2,1.2970069E-1,8E0,1.0386555E3,1.6350928E2,5.5728372E-2,1.6536734E2,1.0820001E-2,1.3176432E3,3.0286377E2,5.3781967E0,2.8579766E-3,6.398952E-3,8E-3,3.1679922E2,1.5777042E-2,1.1E1,4.4036023E2,4.967509E0,2.748596E5,5.9017062E4,6.7582285E3,1.2123006E-3,1.956E3,1.958E3,2.245094E3,1.0451587E3,3.3112583E-3,4.3612905E0,2.6709613E2,3.9002087E-2,1.926E3,9.011591E1,1.0405136E2,7E0,1.5421898E2,1.7279958E2,4.9875313E-3,9.2903E2,9.6912484E-4,1.9323824E2,5.3399014E0,1.955E3,2.1739302E2,1.8018018E-2,4.5333333E0,2.3528035E-3,2.2018011E2,8E0,2.5E0,5.605767E2,4.4407635E2,2.6468063E2,1.921E3,1.9695436E2,5.283019E0,5.9535545E-3,2.7220578E2,2.0810272E2,4.4580154E0,4.9051094E0,3.0052373E4,4.9333334E0,1.793028E2,6.1028037E0,3.2144437E2,3.3630887E2,1.987E3,1.983E3,1.996E3,1.963E3,3.372379E3,4.0970224E2,1.4205003E4,2.007E3,7.6923077E-3,4E0,1.069589E5,6E0,2.0317886E3,5.4178677E0,9.099513E4,1.25E0,1.0386555E3,1.1334166E2,5.4421964E0,7E0,9.544854E2,1.993E3,1.95E3,4E0,1.2470024E-1,4.9767914E4,1.8023183E2,3.8322488E2,1.1427069E2,2.014E3,1.9933555E-2,1.918E3,1.1990061E3,1.75E0,2.1768514E4,7.710949E1,6.506926E2,6.4150686E0,3.9002087E-2,1.901E3,8.454173E1,1.926E3,5.449591E-3,1.5143188E2,1.1241263E2,8E0,1.6815443E2,8.737864E-2,1.5E-1,2.2761235E2,1.0962554E2,2.214526E-3,1.4878416E3,1.381096E3,4E0,8E0,8E0,1.03339914E5,3.2608954E2,5.4178677E0,1.7505713E3,4.2857144E-2,2.8614124E2,9.940621E1,1.929E3,1.942E3,1.5886414E2,3.286234E-3,1.998E3,-3.1071921E3,-1.5985013E4,5E0,2E0,5.8863625E-2,7E0,5.9793816E0,3.5711914E2,2.8304428E4,3E0,1.944E3,1.962E3,8.1533715E-2,2.7034772E2,2.2203818E2,5.3728814E0,1.9788339E2,1.4536028E4,1.5953096E-3,5.3495936E0,3.0373514E4,1.6713092E-2,5E0,1.8156254E4,6.7582285E3,3E0,1.3192226E2,1.5953096E-3,5.19708E0,4.7498562E4,1.981E3,1.737286E2,5.6457143E0,4.967509E0,4.059118E3,3.1679922E2,2.3779283E4,8.2601056E-2,5.6177473E0,5.283019E0,8.69122E4,1.966E3,4.827586E0,5E0,1.986E3,2.3504459E2,2.7220578E2,9.968955E-2,8.641562E4,1.985E3,5.461797E3,1.5957446E-1,4.4444447E0,9.829698E3,1.5639108E5,7.8988E4,2.8347828E5,5.5E0,-1.1539968E4,2.5555642E3,-2.2092586E4,-1.7340887E4,-1.4454261E4,-9.534974E3,-1.9654309E4,-1.5178111E4,-1.6981049E4,-9.224921E3,-1.7154701E4,-1.2869594E4,-8.1476577E3,-1.3690769E4,2.0339568E4,-3.946002E3,-1.5087451E3,7.3102837E3,-8.625751E3,2.6806473E4,1.0299565E4,-7.5927666E3,8.839123E3,-5.206898E3,-2.3882857E4,-1.1684483E4,-1.1374836E4,-5.6653213E3,-2.0792214E3,-1.2680474E4,-3.3402285E3,-1.1786659E4,-1.5155541E4,6.7783765E3,-1.1860658E4,-2.3170884E3,-1.1823553E4,-6.5262847E3,-1.8722528E3,-1.0674421E4,-1.6136394E4,-1.1045288E4,-4.1192197E3,-9.753806E3,1.2659601E4,-9.679796E3,-1.960743E3,3.7091797E3,1.4770557E4,5.1936646E3,2.519748E4,-1.4421042E4,-4.7677656E3,-9.988847E2,-1.2328303E3,7.5052593E3,-8.283929E3,5.9368164E3,-2.0318678E4,1.4391829E3,-1.1522788E4,-1.5375831E4,-8.21731E3,2.2282107E4,3.6502732E3,2.7877053E4,-1.3095585E4,-5.753331E3,-5.666418E3,7.293234E3,2.7363521E4,3.4095442E3,-7.841697E3,2.8827274E2,-8.321884E2,1.0964242E4,8.736062E3,3.1920717E4,-1.00714795E3,1.0838913E4,1.5216089E4,5.062234E4,-1.00242365E3,5.1955894E3,-7.5899487E3,3.7028835E3,3.550943E3,-6.5655483E3,2.757991E4,4.838445E3,-4.8273257E2,9.281703E3,-9.332616E3,8.183062E3,1.5680305E4,-3.5563743E3,1.799599E4,3.3523293E4,2.867399E2,2.1666941E4,1.0604793E4,2.518327E3,1.484263E4,2.508094E3,-2.804094E2,-9.141123E3,2.5693023E4,7.624612E3,1.2921822E4,-2.371902E3,-1.1115752E4,2.1181396E4,1.1484073E4,3.326076E4,1.1181201E3,1.0593105E4,5.4461616E3,1.6619016E4,3.1592115E4,1.1829136E4,1.3725799E4,3.280186E4,3.7235168E4,5.309278E4,1.197776E4,-4.574022E3,3.2247691E4,4.769472E3,6.526605E3,-1.0042917E4,5.2782438E4,3.2704229E4,4.2685137E4,7.406512E4,7.472699E4,1.2526902E5,-1.3779133E4,-1.5304657E3,-1.4924995E3,1.5930948E4,3.7154137E4,4.818933E3,-9.758716E3,6.109349E3,2.6252701E4,1.4194372E4,1.1606283E4,3.0070229E4,3.0431766E4,1.0619468E4,6.4830508E4,2.1762678E4,2.4350477E4,4.242973E4,2.2588854E4,6.3798934E4,3.964237E4,8.824461E3,1.5740241E4,2.5906896E4,8.4641086E4,1.6572988E4,3.5631855E4,-8.608831E3,7.237012E4,3.4057887E4,-2.931071E3,3.0810307E4,1.5326211E5,8.800515E4,3.6205902E4,-4.2810283E3,1.278201E5,6.820585E4,4.0087684E4,1.2485885E5,2.085802E2,2.40546E4,1.414357E4,4.856455E4,1.2064659E4,4.9932207E4,6.435601E4,1.5868494E4,7.743074E4,3.9230266E4,1.774608E5,2.800375E3],"split_indices":[5,2,2,8,8,6,13,5,2,2,2,2,5,11,5,2,6,5,6,5,6,6,5,6,15,2,5,5,4,2,2,5,8,13,8,13,6,5,15,8,6,2,11,5,15,13,11,13,12,15,13,8,12,12,9,13,12,5,2,8,0,0,15,12,6,6,15,15,9,8,15,11,6,2,2,5,13,2,9,15,12,13,8,6,13,9,8,12,2,5,1,15,15,2,6,2,8,12,2,13,8,8,0,8,2,8,2,2,6,6,6,6,15,2,0,6,12,0,0,0,15,8,0,1,15,13,8,5,15,6,6,4,11,0,2,15,2,6,9,6,15,1,0,2,15,8,11,6,13,6,9,2,13,5,13,11,9,2,13,12,15,15,4,5,5,0,13,8,15,12,2,13,6,6,13,12,6,0,0,0,0,11,0,8,15,0,1,6,6,11,2,2,8,2,0,12,8,0,9,0,0,15,0,2,12,8,0,6,13,8,8,15,13,0,11,8,8,0,6,8,0,6,13,13,11,0,6,0,11,8,0,0,0,0,1,0,0,0,0,0,0,0,0,0,0,0,0,0,0,0,0,0,0,0,0,0,0,0,0,0,0,0,0,0,0,0,0,0,0,0,0,0,0,0,0,0,0,0,0,0,0,0,0,0,0,0,0,0,0,0,0,0,0,0,0,0,0,0,0,0,0,0,0,0,0,0,0,0,0,0,0,0,0,0,0,0,0,0,0,0,0,0,0,0,0,0,0,0,0,0,0,0,0,0,0,0,0,0,0,0,0,0,0,0,0,0,0,0,0,0,0,0,0,0,0,0,0,0,0,0,0,0,0,0,0,0,0,0,0,0,0,0,0,0,0,0,0,0,0,0,0,0,0,0,0,0,0,0,0,0,0,0,0,0,0,0,0,0,0,0,0,0,0,0,0,0,0,0,0,0,0,0,0,0,0,0,0,0,0,0,0,0,0],"split_type":[0,0,0,0,0,0,0,0,0,0,0,0,0,0,0,0,0,0,0,0,0,0,0,0,0,0,0,0,0,0,0,0,0,0,0,0,0,0,0,0,0,0,0,0,0,0,0,0,0,0,0,0,0,0,0,0,0,0,0,0,0,0,0,0,0,0,0,0,0,0,0,0,0,0,0,0,0,0,0,0,0,0,0,0,0,0,0,0,0,0,0,0,0,0,0,0,0,0,0,0,0,0,0,0,0,0,0,0,0,0,0,0,0,0,0,0,0,0,0,0,0,0,0,0,0,0,0,0,0,0,0,0,0,0,0,0,0,0,0,0,0,0,0,0,0,0,0,0,0,0,0,0,0,0,0,0,0,0,0,0,0,0,0,0,0,0,0,0,0,0,0,0,0,0,0,0,0,0,0,0,0,0,0,0,0,0,0,0,0,0,0,0,0,0,0,0,0,0,0,0,0,0,0,0,0,0,0,0,0,0,0,0,0,0,0,0,0,0,0,0,0,0,0,0,0,0,0,0,0,0,0,0,0,0,0,0,0,0,0,0,0,0,0,0,0,0,0,0,0,0,0,0,0,0,0,0,0,0,0,0,0,0,0,0,0,0,0,0,0,0,0,0,0,0,0,0,0,0,0,0,0,0,0,0,0,0,0,0,0,0,0,0,0,0,0,0,0,0,0,0,0,0,0,0,0,0,0,0,0,0,0,0,0,0,0,0,0,0,0,0,0,0,0,0,0,0,0,0,0,0,0,0,0,0,0,0,0,0,0,0,0,0,0,0,0,0,0,0,0,0,0,0,0,0,0,0,0,0,0,0,0,0,0,0,0,0,0,0,0,0,0,0,0,0,0,0,0,0,0,0,0,0,0,0,0,0,0,0,0,0,0,0,0,0,0,0,0,0,0,0,0,0,0,0,0,0,0,0,0,0,0,0,0,0,0,0,0,0,0,0,0,0,0],"sum_hessian":[1.1835E4,9.538E3,2.297E3,6.382E3,3.156E3,1.989E3,3.08E2,4.48E3,1.902E3,2.555E3,6.01E2,3.5E2,1.639E3,2.6E2,4.8E1,3.679E3,8.01E2,1.057E3,8.45E2,1.92E3,6.35E2,3.98E2,2.03E2,1.9E2,1.6E2,1.115E3,5.24E2,1.57E2,1.03E2,2.6E1,2.2E1,2.014E3,1.665E3,1.36E2,6.65E2,2.86E2,7.71E2,3.97E2,4.48E2,7.78E2,1.142E3,2.96E2,3.39E2,2.35E2,1.63E2,7E1,1.33E2,1.69E2,2.1E1,1.54E2,6E0,6.85E2,4.3E2,4.28E2,9.6E1,7.1E1,8.6E1,8.5E1,1.8E1,2.5E1,1E0,3E0,1.9E1,7.62E2,1.252E3,1.229E3,4.36E2,1.09E2,2.7E1,4.45E2,2.2E2,2.75E2,1.1E1,3.93E2,3.78E2,3.16E2,8.1E1,3.73E2,7.5E1,4.62E2,3.16E2,1.74E2,9.68E2,2.78E2,1.8E1,3.2E2,1.9E1,1.37E2,9.8E1,1.59E2,4E0,3.3E1,3.7E1,1.14E2,1.9E1,4.3E1,1.26E2,1.5E1,6E0,1.16E2,3.8E1,4E0,2E0,3.99E2,2.86E2,6.9E1,3.61E2,1.58E2,2.7E2,2.8E1,6.8E1,2.6E1,4.5E1,8.5E1,1E0,4.6E1,3.9E1,1.1E1,7E0,1.4E1,1.1E1,1.5E1,4E0,1.4E1,7.48E2,3.79E2,8.73E2,2.66E2,9.63E2,4.31E2,5E0,8E1,2.9E1,3E0,2.4E1,2.4E1,4.21E2,6.5E1,1.55E2,3.1E1,2.44E2,9E0,2E0,9.3E1,3E2,1.12E2,2.66E2,3.6E1,2.8E2,5.2E1,2.9E1,3.22E2,5.1E1,5.6E1,1.9E1,2.71E2,1.91E2,7E0,3.09E2,1.25E2,4.9E1,6.86E2,2.82E2,7.7E1,2.01E2,3E0,1.5E1,2.1E2,1.1E2,1E1,9E0,1.27E2,1E1,6.9E1,2.9E1,6.7E1,9.2E1,1E0,3E0,2.8E1,5E0,1.6E1,2.1E1,5.3E1,6.1E1,3E0,1.6E1,1.4E1,2.9E1,2.4E1,1.02E2,6E0,9E0,5E0,1E0,4E1,7.6E1,5E0,3.3E1,3E0,1E0,2.05E2,1.94E2,6.3E1,2.23E2,3.9E1,3E1,2.38E2,1.23E2,1.16E2,4.2E1,4.3E1,2.27E2,3E0,2.5E1,3.9E1,2.9E1,7E0,1.9E1,3.8E1,7E0,2.3E1,6.2E1,3.2E1,1.4E1,5E0,3.4E1,1E0,1E1,1.2E1,2E0,6E0,5E0,1E1,5E0,1.1E1,3E0,6.26E2,1.22E2,2.4E2,1.39E2,6.59E2,2.14E2,8E1,1.86E2,7.29E2,2.34E2,3.5E2,8.1E1,3E0,2E0,5E1,3E1,2.8E1,1E0,1.9E1,5E0,2E0,2.2E1,8E0,4.13E2,5.2E1,1.3E1,1.4E2,1.5E1,1.2E1,1.9E1,2.43E2,1E0,6E0,3E0,2.9E1,6.4E1,2.83E2,1.7E1,6.9E1,4.3E1,4.4E1,2.22E2,4E0,3.2E1,2.7E1,2.53E2,2.3E1,2.9E1,2.8E1,1E0,1.84E2,1.38E2,1.8E1,3.3E1,4.6E1,1E1,1.8E1,1E0,1.23E2,1.48E2,1.89E2,2E0,6E0,1E0,4E1,2.69E2,1.9E1,1.06E2,3.5E1,1.4E1,5.65E2,1.21E2,2.16E2,6.6E1,3.1E1,4.6E1,5.3E1,1.48E2,9E0,6E0,1.25E2,8.5E1,9.3E1,1.7E1,6E0,4E0,7E0,2E0,1.1E1,1.16E2,7E0,3E0,6.6E1,3E0,1.9E1,1E1,6.4E1,3E0,5E1,4.2E1,1.3E1,1.5E1,1E0,4E0,1.3E1,3E0,1.9E1,2E0,1E0,5.2E1,7E0,5.4E1,8E0,8E0,7E0,7E0,2.5E1,4E0,9E0,1.5E1,7.9E1,2.3E1,3E0,3E0,8E0,1E0,1E0,4E0,1.2E1,2.8E1,1.9E1,5.7E1,2.1E1,1.2E1,2E0,1E0,1.94E2,1.1E1,4E0,1.9E2,1.5E1,4.8E1,4.3E1,1.8E2,5E0,3.4E1,1.6E1,2.22E2,3E0,1.2E2,7E1,4.6E1,4E0,3.8E1,3.9E1,4E0,1.4E2,8.7E1,2.3E1,2E0,3.8E1,1E0,1.5E1,1.4E1,2E0,1.7E1,4E0,3.4E1,6E0,1E0,6E0,1.7E1,3E0,5.9E1,5E0,2.7E1,3E0,1.1E1,2E0,3.2E1,8E0,2E0,5E0,7E0,4E0,1E0],"tree_param":{"num_deleted":"0","num_feature":"16","num_nodes":"423","size_leaf_vector":"1"}},{"base_weights":[1.3500144E3,-6.2055227E4,3.1659216E5,-1.030142E5,1.7615156E4,2.3837136E5,7.85904E5,-4.8926758E4,-1.2765639E5,1.012139E5,-9.872701E3,1.9482575E5,4.1826266E5,6.880615E5,1.3655418E6,-8.381217E4,1.0928414E4,-1.6090531E5,-1.0210051E5,7.391615E4,1.723414E5,-3.8119188E4,2.9171475E4,3.8202347E5,1.6269188E5,5.132694E5,2.9066175E5,8.104631E5,5.055239E5,1.1838312E6,2.400749E5,-1.2103485E5,-6.1567883E4,6.012356E4,-1.8362639E4,-1.839254E5,-1.4617573E5,-8.156253E4,-1.2197026E5,1.0015631E5,2.7779158E4,7.867708E4,2.0132919E5,3.4668766E4,-4.8374844E4,1.2538896E5,1.9270229E4,7.800693E4,4.0263097E5,2.9274397E5,1.4029461E5,4.2904966E5,6.87191E5,7.605549E4,2.682875E5,6.452932E5,9.071398E5,1.10081375E5,4.6305244E5,8.8517706E5,1.7073749E6,-8.258619E4,-1.4421325E5,-2.7043484E4,-7.49183E4,3.9898418E4,1.4477975E5,-2.366597E4,6.3832145E4,-1.6807831E5,-2.005733E5,-1.2744106E5,-1.6605522E5,-1.0936251E5,-7.138128E4,-1.3780058E5,-9.8640734E4,3.7861312E4,1.3226217E5,8.479438E3,1.4090003E5,6.026888E4,1.9892462E5,2.8554228E5,1.6240431E5,-2.243288E4,7.77107E4,1.4542433E5,-5.2326074E4,1.4461267E5,-1.1135738E5,-5.670053E3,5.974582E4,1.4328652E5,-3.291361E4,3.52482E5,5.4557825E5,2.0785836E5,4.2592603E5,1.0664627E5,2.0389003E5,2.9379962E5,5.12644E5,3.368483E5,7.589649E5,1.3913939E5,2.996119E5,7.358565E5,2.4435942E5,9.8409325E5,5.233316E5,1.7069997E5,5.1088456E5,1.00418586E5,4.3569944E5,2.16938E6,6.26692E5,-6.0782523E4,-1.3133775E5,-1.1104902E5,-1.5857666E5,-7.857958E4,-8.1699985E3,-6.4762266E4,-1.0172149E5,5.038276E4,-6.103987E4,1.6035578E5,-1.734649E4,2.738449E3,-3.600862E4,2.864532E5,2.7127674E4,-1.9067283E5,-1.5043872E5,-2.0245561E5,-5.451906E4,-8.385177E4,-1.3648958E5,1.4175455E4,-1.6683708E5,-2.0278883E4,-1.27620586E5,-4.849236E4,-9.998577E4,-7.981521E4,-1.4288345E5,-1.1752825E5,-6.4158707E4,6.086475E4,-1.8553666E4,1.3948797E5,-7.91358E4,3.669871E4,-3.1277758E4,3.0417684E5,5.2857074E4,1.03079695E5,5.530978E3,3.450475E3,2.2057716E5,3.3564312E5,1.1842249E5,1.9053919E5,-1.0738333E4,6.332658E4,-4.5218246E4,1.06886984E5,-7.7890695E4,-8.04549E4,2.9162728E5,-7.253654E4,-1.9095295E4,6.916825E4,1.9882333E5,-1.4588027E5,-5.1924897E3,1.886948E4,-3.7862223E4,8.465651E4,2.2144416E4,5.6793234E4,2.3720482E4,-7.8960425E3,3.9453345E3,2.186139E5,4.3459844E5,6.209268E5,2.6311219E4,1.4247505E5,2.5863673E5,2.1288673E5,4.5582897E5,7.611056E4,1.6302597E5,1.9072147E5,3.5289803E5,5.804878E5,2.284816E5,7.0641844E5,4.2546056E5,6.881875E1,3.6734575E5,8.124868E5,2.3997658E5,5.438301E4,4.5497503E5,1.3592883E5,3.2183494E5,8.7357894E5,4.495312E5,2.899984E5,-1.2883481E4,5.4162044E5,1.0538606E6,5.589111E4,6.195052E5,1.8700828E5,-2.8808267E3,3.2091866E5,5.8395806E5,4.9818184E4,3.0402595E3,2.4536482E6,8.975057E3,6.9796836E4,1.7079322E4,-1.1611613E4,-4.2094175E3,-1.3561308E4,5.190269E3,-7.717482E3,-1.3265697E4,-1.6024291E4,9.233644E3,-8.689444E3,1.1113926E4,-2.1533696E3,4.32273E3,-6.9411064E3,3.9620456E2,-8.105854E3,-1.4268069E4,4.758228E3,3.1504154E4,-8.877835E3,8.597787E3,2.7563373E4,1.2634595E4,-1.7865782E2,3.2264615E4,4.832687E2,-5.240506E3,3.858233E4,-5.8285785E2,9.506359E3,-4.812083E3,-1.1532815E4,-1.9569709E4,-1.2334049E4,-1.7293436E4,-2.0340568E4,-2.191147E3,-1.4671383E4,2.825679E3,-9.513117E3,-6.825477E2,-6.76648E3,-1.4109952E4,2.2758438E2,-1.6802574E4,4.1934796E2,-1.0531348E4,2.4297688E3,-1.3222893E4,-4.1659956E3,-1.2412103E4,-1.009176E4,1.3963144E4,-1.3364601E4,-2.8386702E3,-1.1673218E4,-1.5644439E4,-1.197648E4,9.916485E3,-7.1256807E3,8.493197E3,2.2796108E3,8.864159E3,4.2101475E3,-5.0500522E3,1.2619447E4,2.623124E4,1.2918281E3,-1.2731589E4,-4.069054E3,6.8561323E3,3.4540396E3,-7.6825024E3,5.4279168E4,9.028384E3,-5.992997E3,9.889784E3,3.6442512E3,1.3272664E4,-1.0105059E4,4.075089E3,2.7707738E4,7.171781E3,2.4729275E4,5.069137E4,-4.5920312E3,1.4963966E4,2.0654928E4,8.857381E3,1.3307633E4,-6.133369E3,-2.1114365E3,1.1130477E4,1.890619E3,-6.2268726E3,4.9582954E3,1.7441225E4,-1.5476197E4,5.403426E3,-1.3954346E4,1.8360074E3,5.031435E4,2.041125E4,-4.0755535E3,-8.696581E3,-7.4778296E3,3.4291174E2,-1.0246686E4,9.661518E3,2.5765445E4,1.0421337E4,2.3321626E3,-1.8438498E4,-1.2764625E3,4.9758908E2,-9.09984E2,4.6564893E3,2.861626E4,-4.7998477E3,-6.243837E3,9.644167E3,6.334081E2,1.8584145E4,7.8725547E3,8.6190735E2,2.8394598E4,2.1109878E3,3.0484312E4,5.082481E4,4.7606793E4,9.313302E4,-3.6300515E3,2.0099082E4,7.522789E3,2.0402322E4,3.49901E4,1.949147E4,2.328481E4,1.6617188E3,4.7426805E4,9.294427E3,7.2720386E3,3.497322E4,2.2246941E4,1.0006676E4,1.81595E4,4.563955E4,6.9858984E4,2.6240426E4,1.844996E4,7.47732E4,2.5276814E4,3.2538745E3,7.423812E4,-4.2380703E3,3.3059668E4,5.513204E4,2.546153E3,3.9898805E4,4.6118867E4,8.896438E4,3.3788855E4,2.9435125E3,3.3381543E4,-1.8194244E3,6.109062E4,9.540848E3,3.7082761E3,2.4359824E4,5.385101E4,3.0420572E4,2.4156012E4,9.903203E4,5.1075164E4,-6.414625E2,1.2135409E4,3.380708E4,4.8086025E3,7.823769E4,9.450589E4,1.3912631E5,1.1474323E4,-6.0332627E3,2.136071E4,6.693543E4,1.177441E4,2.2423842E4,1.766451E4,5.196645E4,5.9535293E4,-3.2774688E3,8.105512E4,2.948777E5],"categories":[],"categories_nodes":[],"categories_segments":[],"categories_sizes":[],"default_left":[0,0,0,0,0,0,0,0,0,0,0,0,0,0,0,0,0,0,0,0,0,0,0,0,0,0,0,0,0,0,0,0,0,0,0,0,0,0,0,0,0,0,0,0,0,0,0,0,0,0,0,0,0,0,0,0,0,0,0,0,0,0,0,0,0,0,0,0,0,0,0,0,0,0,0,0,0,0,0,0,0,0,0,0,0,0,0,0,0,0,0,0,0,0,0,0,0,0,0,0,0,0,0,0,0,0,0,0,0,0,0,0,0,0,0,0,0,0,0,0,0,0,0,0,0,0,0,0,0,0,0,0,0,0,0,0,0,0,0,0,0,0,0,0,0,0,0,0,0,0,0,0,0,0,0,0,0,0,0,0,0,0,0,0,0,0,0,0,0,0,0,0,0,0,0,0,0,0,0,0,0,0,0,0,0,0,0,0,0,0,0,0,0,0,0,0,0,0,0,0,0,0,0,0,0,0,0,0,0,0,0,0,0,0,0,0,0,0,0,0,0,0,0,0,0,0,0,0,0,0,0,0,0,0,0,0,0,0,0,0,0,0,0,0,0,0,0,0,0,0,0,0,0,0,0,0,0,0,0,0,0,0,0,0,0,0,0,0,0,0,0,0,0,0,0,0,0,0,0,0,0,0,0,0,0,0,0,0,0,0,0,0,0,0,0,0,0,0,0,0,0,0,0,0,0,0,0,0,0,0,0,0,0,0,0,0,0,0,0,0,0,0,0,0,0,0,0,0,0,0,0,0,0,0,0,0,0,0,0,0,0,0,0,0,0,0,0,0,0,0,0,0,0,0,0,0,0,0,0,0,0,0,0,0,0,0,0,0,0,0,0,0,0,0,0,0,0,0,0,0,0,0,0,0,0,0,0,0,0,0,0,0,0,0,0,0,0,0,0,0,0,0,0,0,0,0,0,0,0,0,0,0,0,0,0,0,0,0,0],"id":3,"left_children":[1,3,5,7,9,11,13,15,17,19,21,23,25,27,29,31,33,35,37,39,41,43,45,47,49,51,53,55,57,59,-1,61,63,65,67,69,71,73,75,77,79,81,83,85,87,89,91,93,95,97,99,101,103,-1,105,107,109,-1,111,113,115,117,119,121,123,125,127,129,131,133,135,137,139,141,143,145,147,149,151,153,155,157,159,161,163,165,167,169,171,173,175,177,179,181,183,185,187,189,191,193,195,197,199,201,203,205,207,209,211,213,215,217,219,-1,221,223,225,227,229,231,233,235,237,239,241,243,245,247,-1,249,251,253,255,257,259,261,263,265,267,-1,269,271,273,275,277,279,281,283,285,287,289,291,293,295,297,299,301,303,305,-1,307,309,311,313,315,317,319,321,323,325,327,329,331,333,335,337,339,341,343,345,347,349,-1,-1,-1,351,353,355,357,359,361,363,365,367,369,371,373,375,377,379,381,-1,383,385,387,389,391,393,395,397,399,401,-1,403,405,407,409,411,-1,413,415,-1,-1,417,-1,-1,-1,-1,-1,-1,-1,-1,-1,-1,-1,-1,-1,-1,-1,-1,-1,-1,-1,-1,-1,-1,-1,-1,-1,-1,-1,-1,-1,-1,-1,-1,-1,-1,-1,-1,-1,-1,-1,-1,-1,-1,-1,-1,-1,-1,-1,-1,-1,-1,-1,-1,-1,-1,-1,-1,-1,-1,-1,-1,-1,-1,-1,-1,-1,-1,-1,-1,-1,-1,-1,-1,-1,-1,-1,-1,-1,-1,-1,-1,-1,-1,-1,-1,-1,-1,-1,-1,-1,-1,-1,-1,-1,-1,-1,-1,-1,-1,-1,-1,-1,-1,-1,-1,-1,-1,-1,-1,-1,-1,-1,-1,-1,-1,-1,-1,-1,-1,-1,-1,-1,-1,-1,-1,-1,-1,-1,-1,-1,-1,-1,-1,-1,-1,-1,-1,-1,-1,-1,-1,-1,-1,-1,-1,-1,-1,-1,-1,-1,-1,-1,-1,-1,-1,-1,-1,-1,-1,-1,-1,-1,-1,-1,-1,-1,-1,-1,-1,-1,-1,-1,-1,-1,-1,-1,-1,-1,-1,-1,-1,-1,-1,-1,-1,-1,-1,-1,-1,-1,-1,-1,-1,-1,-1,-1],"loss_changes":[2.3765703E14,3.23044E13,7.290219E13,8.7078197E12,7.726709E12,1.3298091E13,1.5166989E13,4.2772888E12,3.7996032E12,1.6026886E12,2.7924525E12,8.221037E12,3.8756292E12,5.0643033E12,4.682236E12,1.0639712E12,1.0890421E12,6.34313E11,1.02740525E12,7.2723517E11,6.086381E11,1.0982683E12,1.0102752E12,1.2278594E12,3.3873094E12,2.4735656E12,1.3098969E12,1.7299994E12,2.043834E12,4.1175776E12,0E0,4.1852915E11,3.7223688E11,4.7705915E11,2.081302E11,1.6600216E11,4.2352614E11,3.4684115E11,4.6282047E11,7.6300576E11,4.7910945E11,1.11969305E11,5.2727434E11,4.490566E11,9.9388935E11,4.666669E11,9.7447995E11,1.06087916E11,1.1554007E12,1.855968E12,2.1309749E12,1.319182E12,1.2530693E12,0E0,5.206358E11,1.8898506E12,2.113644E12,0E0,1.255242E12,8.997705E11,4.631835E12,1.8760204E11,1.25295395E11,2.2112577E11,1.5265746E11,2.4541964E11,2.954937E11,1.4545024E11,2.2919365E11,1.2834675E11,8.903249E10,2.3269999E11,1.6227238E11,5.4066125E11,5.9749905E11,2.1436144E11,3.3438145E11,1.7243072E11,3.9749996E11,2.1319057E11,4.4393405E11,1.16598555E11,1.7309794E10,4.1238502E11,5.963506E11,1.572343E11,4.8047207E11,8.820923E11,8.4685776E11,3.6251776E11,2.8563464E10,4.7312296E11,3.4282222E11,5.9638088E10,2.310886E10,1.4659638E12,1.8225855E12,3.1839696E11,3.234123E11,1.1238444E12,6.135858E11,8.411163E11,1.0340658E12,1.2277147E11,1.1661088E12,7.515606E11,3.6001913E11,1.4212336E12,2.4174834E11,1.6827296E12,7.296175E11,5.4192046E10,9.508781E11,0E0,1.6212125E11,4.509166E12,4.326582E10,1.2851023E11,5.0909872E10,5.8565853E10,1.0134015E11,1.05884025E11,1.1632298E11,1.3669512E11,1.2300229E11,1.3917353E11,9.735004E10,1.6904513E11,0E0,2.0758197E11,2.0382741E11,1.1842509E11,1.3748852E11,4.1405645E10,1.164386E11,5.7123275E10,4.993467E10,9.405104E10,1.5258144E11,0E0,1.1596726E11,1.2113948E11,1.9713858E11,2.5990948E11,1.0518921E11,1.733862E11,2.3104743E11,1.7568629E11,2.0500493E11,9.737745E10,7.769803E10,3.6692558E11,4.1561264E10,2.764962E11,2.3948267E11,5.12413E11,1.20168595E11,5.047963E10,9.045515E10,0E0,3.0592106E10,4.9504898E11,7.869589E10,1.5311464E11,1.3913645E11,7.1222624E10,7.005846E10,3.318654E11,1.807635E11,6.6789204E10,1.9347472E11,3.5643825E11,6.010312E11,1.9833409E11,2.6814762E11,4.3390566E10,2.9450442E8,2.6379511E11,8.643945E11,3.891331E11,3.818624E11,5.660885E9,0E0,0E0,0E0,7.165932E11,6.764752E11,1.4001772E12,8.385502E10,1.8745976E11,2.7491618E11,3.530883E10,3.3732166E11,3.7344693E11,8.4225923E11,6.954408E11,6.613269E11,4.5808432E11,2.0116144E11,6.5082596E11,4.9829066E11,0E0,1.0883904E11,7.8233416E11,1.13741365E11,4.9280398E11,2.781201E11,1.5060717E11,2.0670369E11,1.974261E12,4.778007E11,4.815225E10,0E0,1.3882376E12,9.611919E11,3.4282811E10,1.4029213E11,9.69923E9,0E0,6.25048E11,4.2711017E11,0E0,0E0,3.3046753E12,0E0,0E0,0E0,0E0,0E0,0E0,0E0,0E0,0E0,0E0,0E0,0E0,0E0,0E0,0E0,0E0,0E0,0E0,0E0,0E0,0E0,0E0,0E0,0E0,0E0,0E0,0E0,0E0,0E0,0E0,0E0,0E0,0E0,0E0,0E0,0E0,0E0,0E0,0E0,0E0,0E0,0E0,0E0,0E0,0E0,0E0,0E0,0E0,0E0,0E0,0E0,0E0,0E0,0E0,0E0,0E0,0E0,0E0,0E0,0E0,0E0,0E0,0E0,0E0,0E0,0E0,0E0,0E0,0E0,0E0,0E0,0E0,0E0,0E0,0E0,0E0,0E0,0E0,0E0,0E0,0E0,0E0,0E0,0E0,0E0,0E0,0E0,0E0,0E0,0E0,0E0,0E0,0E0,0E0,0E0,0E0,0E0,0E0,0E0,0E0,0E0,0E0,0E0,0E0,0E0,0E0,0E0,0E0,0E0,0E0,0E0,0E0,0E0,0E0,0E0,0E0,0E0,0E0,0E0,0E0,0E0,0E0,0E0,0E0,0E0,0E0,0E0,0E0,0E0,0E0,0E0,0E0,0E0,0E0,0E0,0E0,0E0,0E0,0E0,0E0,0E0,0E0,0E0,0E0,0E0,0E0,0E0,0E0,0E0,0E0,0E0,0E0,0E0,0E0,0E0,0E0,0E0,0E0,0E0,0E0,0E0,0E0,0E0,0E0,0E0,0E0,0E0,0E0,0E0,0E0,0E0,0E0,0E0,0E0,0E0,0E0,0E0,0E0,0E0,0E0,0E0,0E0,0E0,0E0,0E0,0E0,0E0,0E0,0E0,0E0,0E0,0E0,0E0,0E0,0E0],"parents":[2147483647,0,0,1,1,2,2,3,3,4,4,5,5,6,6,7,7,8,8,9,9,10,10,11,11,12,12,13,13,14,14,15,15,16,16,17,17,18,18,19,19,20,20,21,21,22,22,23,23,24,24,25,25,26,26,27,27,28,28,29,29,31,31,32,32,33,33,34,34,35,35,36,36,37,37,38,38,39,39,40,40,41,41,42,42,43,43,44,44,45,45,46,46,47,47,48,48,49,49,50,50,51,51,52,52,54,54,55,55,56,56,58,58,59,59,60,60,61,61,62,62,63,63,64,64,65,65,66,66,67,67,68,68,69,69,70,70,71,71,72,72,73,73,74,74,75,75,76,76,77,77,78,78,79,79,80,80,81,81,82,82,83,83,84,84,85,85,86,86,87,87,88,88,89,89,90,90,91,91,92,92,93,93,94,94,95,95,96,96,97,97,98,98,99,99,100,100,101,101,102,102,103,103,104,104,105,105,106,106,107,107,108,108,109,109,110,110,111,111,112,112,114,114,115,115,116,116,117,117,118,118,119,119,120,120,121,121,122,122,123,123,124,124,125,125,126,126,127,127,129,129,130,130,131,131,132,132,133,133,134,134,135,135,136,136,137,137,138,138,140,140,141,141,142,142,143,143,144,144,145,145,146,146,147,147,148,148,149,149,150,150,151,151,152,152,153,153,154,154,155,155,156,156,157,157,158,158,160,160,161,161,162,162,163,163,164,164,165,165,166,166,167,167,168,168,169,169,170,170,171,171,172,172,173,173,174,174,175,175,176,176,177,177,178,178,179,179,180,180,181,181,185,185,186,186,187,187,188,188,189,189,190,190,191,191,192,192,193,193,194,194,195,195,196,196,197,197,198,198,199,199,200,200,202,202,203,203,204,204,205,205,206,206,207,207,208,208,209,209,210,210,211,211,213,213,214,214,215,215,216,216,217,217,219,219,220,220,223,223],"right_children":[2,4,6,8,10,12,14,16,18,20,22,24,26,28,30,32,34,36,38,40,42,44,46,48,50,52,54,56,58,60,-1,62,64,66,68,70,72,74,76,78,80,82,84,86,88,90,92,94,96,98,100,102,104,-1,106,108,110,-1,112,114,116,118,120,122,124,126,128,130,132,134,136,138,140,142,144,146,148,150,152,154,156,158,160,162,164,166,168,170,172,174,176,178,180,182,184,186,188,190,192,194,196,198,200,202,204,206,208,210,212,214,216,218,220,-1,222,224,226,228,230,232,234,236,238,240,242,244,246,248,-1,250,252,254,256,258,260,262,264,266,268,-1,270,272,274,276,278,280,282,284,286,288,290,292,294,296,298,300,302,304,306,-1,308,310,312,314,316,318,320,322,324,326,328,330,332,334,336,338,340,342,344,346,348,350,-1,-1,-1,352,354,356,358,360,362,364,366,368,370,372,374,376,378,380,382,-1,384,386,388,390,392,394,396,398,400,402,-1,404,406,408,410,412,-1,414,416,-1,-1,418,-1,-1,-1,-1,-1,-1,-1,-1,-1,-1,-1,-1,-1,-1,-1,-1,-1,-1,-1,-1,-1,-1,-1,-1,-1,-1,-1,-1,-1,-1,-1,-1,-1,-1,-1,-1,-1,-1,-1,-1,-1,-1,-1,-1,-1,-1,-1,-1,-1,-1,-1,-1,-1,-1,-1,-1,-1,-1,-1,-1,-1,-1,-1,-1,-1,-1,-1,-1,-1,-1,-1,-1,-1,-1,-1,-1,-1,-1,-1,-1,-1,-1,-1,-1,-1,-1,-1,-1,-1,-1,-1,-1,-1,-1,-1,-1,-1,-1,-1,-1,-1,-1,-1,-1,-1,-1,-1,-1,-1,-1,-1,-1,-1,-1,-1,-1,-1,-1,-1,-1,-1,-1,-1,-1,-1,-1,-1,-1,-1,-1,-1,-1,-1,-1,-1,-1,-1,-1,-1,-1,-1,-1,-1,-1,-1,-1,-1,-1,-1,-1,-1,-1,-1,-1,-1,-1,-1,-1,-1,-1,-1,-1,-1,-1,-1,-1,-1,-1,-1,-1,-1,-1,-1,-1,-1,-1,-1,-1,-1,-1,-1,-1,-1,-1,-1,-1,-1,-1,-1,-1,-1,-1,-1,-1,-1],"split_conditions":[2.6468063E2,1.8673503E2,3.9855386E2,2.0006446E-3,5.5728372E-2,3.465282E2,5.360503E2,1.4028352E2,1.3378032E2,2.3411555E2,2.2389622E2,1.955E3,8.737864E-2,1.6997168E-2,1.934E3,1.021933E2,1.933E3,1.021933E2,5.5720787E-3,1.8260832E-3,1.5050285E2,1.954E3,1.956E3,2E0,5.3851224E-2,4E0,5.3433916E-3,9.607099E2,4E0,5.25E0,2.400749E5,1.931E3,1.931E3,1.579351E2,1.7558667E2,7.331821E-2,4.86715E-3,1.75E0,8.8072046E2,1.3378032E2,1.2348667E3,2.5827036E2,4E0,1.393545E2,3E0,2.508381E2,9.2903E2,1.942E3,7.1174377E-3,3.25E0,3.0750894E2,2.8985736E2,5.7414056E2,7.605549E4,2.573413E2,8.924262E2,3.372379E3,1.10081375E5,7.343053E2,2.4305283E3,2.004E3,4.6693048E2,4.2915966E-2,1.0033524E2,3.2719837E-3,5.9643726E2,6.698306E2,1.1857317E-3,1.765157E2,8.454173E1,8.498395E3,3.7690747E2,5.667083E1,5.0632135E2,1.978E3,1.959E3,1.6908347E2,6.192914E2,6E0,1.985E3,2.25E0,6.698306E2,7.580698E-4,2.5176714E2,2.537613E-3,6.0513653E-2,1.7505713E3,1.986E3,9.034817E2,1.5979317E2,1.381096E3,1.4084507E-2,3.9364982E-2,1.93E3,1.951E3,1.9323824E2,2.8400447E3,2.8335416E2,1.972E3,1.0799973E3,3.75E0,4.229124E-2,3.7261294E-3,8.812457E-4,3.5649914E-2,5E0,7.119157E2,4.457163E-3,2.008E3,2.75E0,3.8610038E-3,8.8803284E-2,3.5E0,1.00418586E5,4.75E0,7E0,6E0,7.710949E1,1.934E3,1.952E3,1.7505713E3,1.9304377E-3,1.3099323E2,7.9385614E2,6.5747455E2,5.89934E2,1.0058608E3,1.2368584E-3,-1.734649E4,3.0487804E-3,1.952E3,4E0,4.9740265E2,5.1182535E-2,1.954E3,5.373103E-1,7.710949E1,4E0,1.8315018E-3,1.4175455E4,1.909E3,1.961E3,2.0669235E-3,1.6180076E-1,3.109835E3,4E0,5.57418E2,8.262108E-2,1.7661692E-1,1.93E3,1.954E3,2.1739302E2,1.926E3,1.2913518E2,4.059861E2,1.4251321E3,2.0624466E2,1.1998923E-3,1.7559263E-3,3.450475E3,5E0,3.502627E-3,2.25E0,3.5E0,1.966E3,2.015995E2,1.5247067E-4,3.602078E-3,7.733463E-2,2.0345757E2,2.001E3,4.7550495E-3,1.9602533E2,1.75E0,1.1094476E3,1.912E3,2E0,1.5247067E-4,1.965E3,1.300642E2,1.999E3,1.925E3,2.3720482E4,-7.8960425E3,3.9453345E3,5E0,4.7008917E2,3.1772827E2,1.502146E-1,1.9695436E2,2.1739302E2,4.5E0,5.0664977E-3,2.001E3,2.0317886E3,1.988E3,3.1122504E2,3.9002087E-2,6E0,6E0,1.5873017E-2,6.881875E1,1.903E3,2.0420079E2,3.595346E2,1.9695436E2,5E0,1.1102941E-1,1.973E3,2.694187E2,9.138187E-2,1.79795E-3,-1.2883481E4,1.6452192E3,4E0,6E0,3.25E0,5E0,-2.8808267E3,4.1713446E2,2.004E3,4.9818184E4,3.0402595E3,5E0,8.975057E3,6.9796836E4,1.7079322E4,-1.1611613E4,-4.2094175E3,-1.3561308E4,5.190269E3,-7.717482E3,-1.3265697E4,-1.6024291E4,9.233644E3,-8.689444E3,1.1113926E4,-2.1533696E3,4.32273E3,-6.9411064E3,3.9620456E2,-8.105854E3,-1.4268069E4,4.758228E3,3.1504154E4,-8.877835E3,8.597787E3,2.7563373E4,1.2634595E4,-1.7865782E2,3.2264615E4,4.832687E2,-5.240506E3,3.858233E4,-5.8285785E2,9.506359E3,-4.812083E3,-1.1532815E4,-1.9569709E4,-1.2334049E4,-1.7293436E4,-2.0340568E4,-2.191147E3,-1.4671383E4,2.825679E3,-9.513117E3,-6.825477E2,-6.76648E3,-1.4109952E4,2.2758438E2,-1.6802574E4,4.1934796E2,-1.0531348E4,2.4297688E3,-1.3222893E4,-4.1659956E3,-1.2412103E4,-1.009176E4,1.3963144E4,-1.3364601E4,-2.8386702E3,-1.1673218E4,-1.5644439E4,-1.197648E4,9.916485E3,-7.1256807E3,8.493197E3,2.2796108E3,8.864159E3,4.2101475E3,-5.0500522E3,1.2619447E4,2.623124E4,1.2918281E3,-1.2731589E4,-4.069054E3,6.8561323E3,3.4540396E3,-7.6825024E3,5.4279168E4,9.028384E3,-5.992997E3,9.889784E3,3.6442512E3,1.3272664E4,-1.0105059E4,4.075089E3,2.7707738E4,7.171781E3,2.4729275E4,5.069137E4,-4.5920312E3,1.4963966E4,2.0654928E4,8.857381E3,1.3307633E4,-6.133369E3,-2.1114365E3,1.1130477E4,1.890619E3,-6.2268726E3,4.9582954E3,1.7441225E4,-1.5476197E4,5.403426E3,-1.3954346E4,1.8360074E3,5.031435E4,2.041125E4,-4.0755535E3,-8.696581E3,-7.4778296E3,3.4291174E2,-1.0246686E4,9.661518E3,2.5765445E4,1.0421337E4,2.3321626E3,-1.8438498E4,-1.2764625E3,4.9758908E2,-9.09984E2,4.6564893E3,2.861626E4,-4.7998477E3,-6.243837E3,9.644167E3,6.334081E2,1.8584145E4,7.8725547E3,8.6190735E2,2.8394598E4,2.1109878E3,3.0484312E4,5.082481E4,4.7606793E4,9.313302E4,-3.6300515E3,2.0099082E4,7.522789E3,2.0402322E4,3.49901E4,1.949147E4,2.328481E4,1.6617188E3,4.7426805E4,9.294427E3,7.2720386E3,3.497322E4,2.2246941E4,1.0006676E4,1.81595E4,4.563955E4,6.9858984E4,2.6240426E4,1.844996E4,7.47732E4,2.5276814E4,3.2538745E3,7.423812E4,-4.2380703E3,3.3059668E4,5.513204E4,2.546153E3,3.9898805E4,4.6118867E4,8.896438E4,3.3788855E4,2.9435125E3,3.3381543E4,-1.8194244E3,6.109062E4,9.540848E3,3.7082761E3,2.4359824E4,5.385101E4,3.0420572E4,2.4156012E4,9.903203E4,5.1075164E4,-6.414625E2,1.2135409E4,3.380708E4,4.8086025E3,7.823769E4,9.450589E4,1.3912631E5,1.1474323E4,-6.0332627E3,2.136071E4,6.693543E4,1.177441E4,2.2423842E4,1.766451E4,5.196645E4,5.9535293E4,-3.2774688E3,8.105512E4,2.948777E5],"split_indices":[2,2,2,12,11,2,2,2,2,2,2,6,11,9,7,2,6,2,12,12,13,6,6,1,11,4,12,15,0,1,0,6,6,13,13,11,12,1,15,13,15,2,0,13,0,13,15,6,9,1,2,13,15,0,13,15,15,0,15,15,6,15,11,13,9,15,15,12,2,2,15,15,13,15,6,6,2,15,0,6,1,15,12,2,12,11,15,6,15,13,15,9,10,6,6,13,15,2,6,15,1,11,9,12,10,4,15,12,6,1,9,10,1,0,1,0,0,2,7,6,15,12,13,15,15,15,15,9,0,9,6,0,15,11,6,10,2,4,9,0,6,6,12,10,15,4,15,12,11,6,6,13,6,13,15,15,2,12,9,0,0,9,1,1,6,2,10,12,11,2,6,12,2,1,15,6,1,10,6,13,6,6,0,0,0,0,15,2,11,13,13,1,9,7,15,7,2,11,0,0,10,0,6,13,2,13,0,11,6,13,11,12,0,15,4,0,1,0,0,13,7,0,0,0,0,0,0,0,0,0,0,0,0,0,0,0,0,0,0,0,0,0,0,0,0,0,0,0,0,0,0,0,0,0,0,0,0,0,0,0,0,0,0,0,0,0,0,0,0,0,0,0,0,0,0,0,0,0,0,0,0,0,0,0,0,0,0,0,0,0,0,0,0,0,0,0,0,0,0,0,0,0,0,0,0,0,0,0,0,0,0,0,0,0,0,0,0,0,0,0,0,0,0,0,0,0,0,0,0,0,0,0,0,0,0,0,0,0,0,0,0,0,0,0,0,0,0,0,0,0,0,0,0,0,0,0,0,0,0,0,0,0,0,0,0,0,0,0,0,0,0,0,0,0,0,0,0,0,0,0,0,0,0,0,0,0,0,0,0,0,0,0,0,0,0,0,0,0,0,0,0,0,0,0,0,0,0,0,0,0,0,0,0,0,0,0,0,0,0],"split_type":[0,0,0,0,0,0,0,0,0,0,0,0,0,0,0,0,0,0,0,0,0,0,0,0,0,0,0,0,0,0,0,0,0,0,0,0,0,0,0,0,0,0,0,0,0,0,0,0,0,0,0,0,0,0,0,0,0,0,0,0,0,0,0,0,0,0,0,0,0,0,0,0,0,0,0,0,0,0,0,0,0,0,0,0,0,0,0,0,0,0,0,0,0,0,0,0,0,0,0,0,0,0,0,0,0,0,0,0,0,0,0,0,0,0,0,0,0,0,0,0,0,0,0,0,0,0,0,0,0,0,0,0,0,0,0,0,0,0,0,0,0,0,0,0,0,0,0,0,0,0,0,0,0,0,0,0,0,0,0,0,0,0,0,0,0,0,0,0,0,0,0,0,0,0,0,0,0,0,0,0,0,0,0,0,0,0,0,0,0,0,0,0,0,0,0,0,0,0,0,0,0,0,0,0,0,0,0,0,0,0,0,0,0,0,0,0,0,0,0,0,0,0,0,0,0,0,0,0,0,0,0,0,0,0,0,0,0,0,0,0,0,0,0,0,0,0,0,0,0,0,0,0,0,0,0,0,0,0,0,0,0,0,0,0,0,0,0,0,0,0,0,0,0,0,0,0,0,0,0,0,0,0,0,0,0,0,0,0,0,0,0,0,0,0,0,0,0,0,0,0,0,0,0,0,0,0,0,0,0,0,0,0,0,0,0,0,0,0,0,0,0,0,0,0,0,0,0,0,0,0,0,0,0,0,0,0,0,0,0,0,0,0,0,0,0,0,0,0,0,0,0,0,0,0,0,0,0,0,0,0,0,0,0,0,0,0,0,0,0,0,0,0,0,0,0,0,0,0,0,0,0,0,0,0,0,0,0,0,0,0,0,0,0,0,0,0,0,0,0,0,0,0,0,0,0,0,0,0,0,0,0,0,0,0,0,0,0,0,0],"sum_hessian":[1.1888E4,9.898E3,1.99E3,6.537E3,3.361E3,1.707E3,2.83E2,2.047E3,4.49E3,8.31E2,2.53E3,1.376E3,3.31E2,2.44E2,3.9E1,1.293E3,7.54E2,1.949E3,2.541E3,6.02E2,2.29E2,1.468E3,1.062E3,2E2,1.176E3,1.88E2,1.43E2,1.44E2,1E2,3.5E1,4E0,4.82E2,8.11E2,2.81E2,4.73E2,7.56E2,1.193E3,1.252E3,1.289E3,3.83E2,2.19E2,5.5E1,1.74E2,1.81E2,1.287E3,9.8E1,9.64E2,1.3E1,1.87E2,1.71E2,1.005E3,1.29E2,5.9E1,5E0,1.38E2,5.6E1,8.8E1,5E0,9.5E1,2.4E1,1.1E1,1.83E2,2.99E2,2.27E2,5.84E2,2.28E2,5.3E1,4.45E2,2.8E1,3.93E2,3.63E2,6.18E2,5.75E2,3.33E2,9.19E2,7.65E2,5.24E2,1.31E2,2.52E2,1.88E2,3.1E1,4.9E1,6E0,5.3E1,1.21E2,7.8E1,1.03E2,2.5E1,1.262E3,9.1E1,7E0,5.97E2,3.67E2,8E0,5E0,1.41E2,4.6E1,1.06E2,6.5E1,6.59E2,3.46E2,5.1E1,7.8E1,1.1E1,4.8E1,2.8E1,1.1E2,4.5E1,1.1E1,7.2E1,1.6E1,1.4E1,8.1E1,1.8E1,6E0,7E0,4E0,1.28E2,5.5E1,9.3E1,2.06E2,6E1,1.67E2,4.26E2,1.58E2,2.07E2,2.1E1,5.1E1,2E0,1.42E2,3.03E2,3E0,2.5E1,1.68E2,2.25E2,3.58E2,5E0,1.08E2,5.1E2,1E0,5.74E2,5.7E1,2.76E2,5.12E2,4.07E2,6.3E1,7.02E2,3.37E2,1.87E2,9.3E1,3.8E1,2.44E2,8E0,1.1E2,7.8E1,1E1,2.1E1,2.7E1,2.2E1,1E0,5E0,4E1,1.3E1,1.04E2,1.7E1,1.6E1,6.2E1,8.7E1,1.6E1,1E1,1.5E1,7.84E2,4.78E2,3.9E1,5.2E1,5E0,2E0,3.39E2,2.58E2,2.2E2,1.47E2,5E0,3E0,3E0,2E0,5.5E1,8.6E1,4E1,6E0,4.8E1,5.8E1,9E0,5.6E1,4.29E2,2.3E2,3.2E2,2.6E1,8E0,4.3E1,2.2E1,5.6E1,1E0,1E1,4.3E1,5E0,2.3E1,5E0,1.4E1,9.6E1,2.9E1,1.6E1,1E1,1E0,1.1E1,6.1E1,3E0,1.3E1,1.3E1,1E0,2.4E1,5.7E1,5E0,1E0,6E0,1E0,3E0,1E0,3.1E1,9.7E1,5.4E1,1E0,3.8E1,5.5E1,2.05E2,1E0,5.8E1,2E0,1.33E2,3.4E1,3.99E2,2.7E1,1.07E2,5.1E1,2.06E2,1E0,1.8E1,3E0,1E1,4.1E1,1.41E2,1E0,8.7E1,2.16E2,2E0,1E0,1.3E1,1.2E1,1.2E1,1.56E2,1.05E2,1.2E2,3.56E2,2E0,2E0,3E0,9.4E1,1.4E1,3.3E1,4.77E2,4E0,5.7E2,4.5E1,1.2E1,8E0,2.68E2,4.71E2,4.1E1,4.06E2,1E0,3E1,3.3E1,2.43E2,4.59E2,3.34E2,3E0,1.79E2,8E0,4E1,5.3E1,1.3E1,2.5E1,2.22E2,2.2E1,3E0,5E0,3.2E1,7.8E1,3.2E1,4.6E1,4E0,6E0,6E0,1.5E1,9E0,1.8E1,5E0,1.7E1,3E0,2E0,2.8E1,1.2E1,2E0,1.1E1,8.9E1,1.5E1,4E0,1.3E1,6E0,1E1,1.3E1,4.9E1,4.8E1,3.9E1,1E1,6E0,6E0,4E0,3E0,1.2E1,2.46E2,5.38E2,1.37E2,3.41E2,5E0,3.4E1,3.1E1,2.1E1,1E0,4E0,1E0,1E0,1.69E2,1.7E2,7E0,2.51E2,1.6E1,2.04E2,1.35E2,1.2E1,3E0,2E0,4.1E1,1.4E1,3.3E1,5.3E1,2.9E1,1.1E1,5E0,1E0,2.4E1,2.4E1,2.2E1,3.6E1,8E0,1E0,5.3E1,3E0,4.25E2,4E0,1.17E2,1.13E2,3.11E2,9E0,4E0,2.2E1,3E0,5E0,3.8E1,5E0,2.1E1,1E0,3.4E1,2.2E1,1E0,9E0,9E0,3.4E1,3E0,2E0,4E0,1.9E1,3E0,2E0,8E0,6E0,5E0,9.1E1,5E0,2.4E1,1.4E1,2E0,3E0,7E0,4E0,7E0,4.9E1,1.2E1,2E0,1E0,2E0,1.1E1,6E0,7E0,1.5E1,9E0,5.6E1,1E0,2E0,4E0],"tree_param":{"num_deleted":"0","num_feature":"16","num_nodes":"419","size_leaf_vector":"1"}},{"base_weights":[8.969104E2,-6.3211766E4,2.6902575E5,-9.777349E4,3.8178008E3,1.9436861E5,6.695805E5,-5.1525363E4,-1.2201934E5,1.2142324E5,-2.801883E4,3.961895E5,1.4798817E5,5.8733975E5,1.1995232E6,-8.394962E4,4.292849E3,-1.4283848E5,-8.457794E4,7.802029E4,1.9702434E5,-4.6804934E4,3.684704E4,2.968637E5,5.2884906E5,9.4294414E4,2.6319634E5,1.1856554E6,5.1205172E5,8.0808644E5,1.6076065E6,-1.26064336E5,-6.3823895E4,3.506772E4,-2.727602E4,-1.7671952E5,-1.29185336E5,-4.3818938E4,-9.795325E4,4.8170242E4,1.3718964E5,2.2142205E5,8.922942E4,-5.013769E4,6.633605E4,1.1880807E4,9.218289E4,1.7592008E5,3.3527525E5,4.4878662E5,6.741848E5,7.288288E4,2.0154514E5,4.67537E5,2.3074512E5,8.28702E5,1.5354341E6,3.8967456E5,6.4065344E5,1.21833836E5,6.781162E5,1.8869704E6,8.8284844E5,-1.4472014E5,-9.922053E4,-3.446505E4,-1.09968336E5,-8.619516E4,4.6116016E4,-4.01582E4,4.214591E4,-1.0074409E5,-1.805948E5,-8.097642E4,-1.4536827E5,-1.28821266E5,-2.6730828E4,-1.0452332E5,-3.545104E4,9.426509E4,-6.817516E3,1.5058694E5,-1.2489108E4,1.8228838E5,3.191477E5,5.0591457E4,6.51935E5,-3.0512053E4,-6.669874E4,4.26224E4,1.7352795E5,7.096043E4,-7.7861865E3,1.4388931E5,2.4047883E4,1.9066464E5,-4.8680805E4,3.5367412E5,8.501574E4,4.7334453E5,1.0413306E5,7.5789475E5,2.932755E5,1.04744164E5,3.738448E4,2.861757E5,1.6404944E5,3.3585637E4,5.0199134E5,1.9440114E5,3.4000028E5,9.9542356E5,4.0069023E4,1.30564586E5,2.4911288E5,5.276109E5,2.8890884E5,7.3922456E5,4.8093288E5,2.636286E4,7.063835E5,1.0767585E6,2.4613111E5,1.5562369E5,1.0993194E5,-1.5318628E5,-5.155797E4,-1.3960228E5,-8.181721E4,-4.789697E4,8.1411772E3,-1.24218336E5,-4.695043E4,8.082782E4,-1.1115914E5,3.4580816E4,1.1017801E5,-1.9543234E4,-6.1412098E4,1.2214606E5,-1.5209489E4,-3.1618877E4,-1.340906E5,-1.6746212E5,-1.9728505E5,3.4636816E3,-8.913722E4,-1.2692096E5,-1.581729E5,-1.457683E5,-1.4708607E4,-6.088663E4,1.815519E4,-8.758597E4,-1.1702949E5,-5.669878E4,1.7632195E5,1.10042625E5,3.021089E4,2.2170537E4,-4.0298633E4,9.7215414E4,1.9198794E5,-6.2307016E4,1.7433959E4,1.9221231E5,-8.461358E4,5.1944375E5,2.8071738E5,1.5288481E5,-2.7055156E4,9.784331E4,-5.30625E1,-6.408468E4,-6.077695E3,-8.288426E4,-4.4834805E4,7.8434E4,-2.1421055E4,2.606842E5,3.4234855E4,3.1519047E4,1.4543605E5,-1.8225137E4,4.6963035E4,1.7264108E5,1.8812543E4,1.9584506E5,7.011381E3,1.992851E5,-1.1155854E4,-1.061286E4,6.18313E3,3.092694E5,4.3185772E5,-5.8861656E4,1.3951506E5,4.008612E5,6.3836394E5,-8.447934E4,2.3419639E4,3.3856572E5,8.3208725E5,1.15131045E4,3.7862508E4,-9.149018E4,1.1098323E5,3.297468E4,4.9106725E5,9.81E4,3.9718822E5,1.7754605E5,3.4113605E4,-4.371573E4,8.316525E4,4.4516403E5,6.8194325E5,1.9073277E5,6.914771E4,4.5403103E5,2.4843612E5,5.1552066E5,1.2309227E5,4.4279375E5,9.074171E5,2.5720852E5,6.687116E5,6.875164E5,1.1251218E6,4.1982578E5,7.798203E5,1.8164326E4,7.2444125E5,5.273712E4,1.30091664E5,2.4173037E4,-8.294844E2,-7.5845845E3,-1.6538523E4,-8.850172E3,2.2423428E4,7.745656E2,-1.4252858E4,-5.4434233E3,-9.804826E3,-3.7167673E3,-9.464128E3,5.057302E3,-9.261014E2,-7.650746E3,-1.35921045E4,6.033588E3,-7.588273E3,-4.9068985E2,2.1188334E4,-1.6185731E4,-7.3288765E3,4.2665063E3,-4.364171E3,9.7202705E3,4.1190996E4,9.1389044E2,-7.227947E3,-8.014354E3,-3.836529E3,1.5814391E4,-1.1537811E4,-2.7102393E3,2.0646754E4,-7.310763E3,1.4487578E4,-1.4197666E4,3.1530547E3,-1.9668037E4,-1.520225E4,-1.9979668E4,-3.6141315E2,-3.8223826E3,5.3315503E3,-9.263924E3,5.4271143E3,-1.7906152E4,-1.2213002E4,-1.6108075E4,-6.9131143E3,-9.335351E3,-1.7231322E4,1.4190515E4,-7.9727554E3,2.756324E3,-7.59122E3,4.92629E3,-4.8099624E3,-7.115979E3,-1.0526758E4,-1.2648153E4,-6.116446E3,-7.393941E3,2.735394E2,5.0537105E4,8.36086E3,6.1676616E3,1.3378453E4,-6.031339E3,5.2561226E3,5.2902715E3,-5.9780994E2,-5.2602285E3,1.5433083E4,7.3717964E3,1.9732037E4,1.5425456E4,2.7587947E4,7.472947E3,-1.23036875E4,2.1267941E4,6.318065E3,2.5650105E3,-1.4615794E4,6.224657E4,1.4025202E4,3.6537156E3,3.0115615E4,4.3628765E3,4.7192723E4,1.3788024E3,-1.1027352E4,-1.1397154E4,-5.6139253E3,9.008641E3,-1.2475974E3,-2.227314E3,-8.850495E3,-7.262775E3,-2.2056655E3,-9.809394E3,8.758807E3,9.455626E3,-4.1827983E3,7.739363E3,2.818636E4,-1.4472198E3,7.153029E3,8.485314E3,-3.071333E2,7.7931626E3,2.0835627E4,-1.0862296E3,-1.075576E4,2.5202363E4,3.7237837E3,9.082229E3,2.316376E4,5.7401284E3,-1.0843394E4,-4.644552E3,3.8917438E4,-5.305736E3,7.9609507E3,1.8209324E4,3.9646543E4,3.1845803E4,7.834484E3,4.5628215E4,1.7669834E4,-1.2532269E4,5.06625E2,2.1205205E4,-4.1691876E2,4.4217887E4,1.7119709E4,-6.6847407E3,6.680585E4,-3.0490312E3,-1.2322322E4,4.3055324E4,1.9726258E4,7.001207E4,1.13553305E5,-1.749507E4,-3.226485E3,9.457175E3,1.661509E4,5.3962665E2,7.867183E3,6.647802E4,-1.5035875E3,2.942567E3,1.4715361E4,4.0502023E4,7.328191E3,4.032656E4,1.69846E4,9.768612E3,-1.7829984E3,1.4983751E2,-6.707197E3,9.389496E3,2.5488064E3,4.803179E4,2.3165004E4,2.2534264E4,7.4447586E4,2.8844047E4,1.7393963E4,2.2673363E4,4.762201E4,1.7486348E4,3.473862E4,1.4119575E4,5.6214652E4,4.958094E4,2.4968576E4,9.5567945E4,2.3652787E4,1.879234E4,4.0489027E4,7.872257E4,3.8070532E3,8.666704E4,5.8972793E4,2.555427E4,1.21284125E5,7.7707195E4,3.778074E4,1.11887055E5,3.5261605E4,7.588137E4,2.8818406E4],"categories":[],"categories_nodes":[],"categories_segments":[],"categories_sizes":[],"default_left":[0,0,0,0,0,0,0,0,0,0,0,0,0,0,0,0,0,0,0,0,0,0,0,0,0,0,0,0,0,0,0,0,0,0,0,0,0,0,0,0,0,0,0,0,0,0,0,0,0,0,0,0,0,0,0,0,0,0,0,0,0,0,0,0,0,0,0,0,0,0,0,0,0,0,0,0,0,0,0,0,0,0,0,0,0,0,0,0,0,0,0,0,0,0,0,0,0,0,0,0,0,0,0,0,0,0,0,0,0,0,0,0,0,0,0,0,0,0,0,0,0,0,0,0,0,0,0,0,0,0,0,0,0,0,0,0,0,0,0,0,0,0,0,0,0,0,0,0,0,0,0,0,0,0,0,0,0,0,0,0,0,0,0,0,0,0,0,0,0,0,0,0,0,0,0,0,0,0,0,0,0,0,0,0,0,0,0,0,0,0,0,0,0,0,0,0,0,0,0,0,0,0,0,0,0,0,0,0,0,0,0,0,0,0,0,0,0,0,0,0,0,0,0,0,0,0,0,0,0,0,0,0,0,0,0,0,0,0,0,0,0,0,0,0,0,0,0,0,0,0,0,0,0,0,0,0,0,0,0,0,0,0,0,0,0,0,0,0,0,0,0,0,0,0,0,0,0,0,0,0,0,0,0,0,0,0,0,0,0,0,0,0,0,0,0,0,0,0,0,0,0,0,0,0,0,0,0,0,0,0,0,0,0,0,0,0,0,0,0,0,0,0,0,0,0,0,0,0,0,0,0,0,0,0,0,0,0,0,0,0,0,0,0,0,0,0,0,0,0,0,0,0,0,0,0,0,0,0,0,0,0,0,0,0,0,0,0,0,0,0,0,0,0,0,0,0,0,0,0,0,0,0,0,0,0,0,0,0,0,0,0,0,0,0,0,0,0,0,0,0,0,0,0,0,0,0,0,0,0,0,0,0,0,0,0,0,0,0,0,0,0,0,0,0,0,0,0,0,0],"id":4,"left_children":[1,3,5,7,9,11,13,15,17,19,21,23,25,27,29,31,33,35,37,39,41,43,45,47,49,51,53,55,57,59,61,63,65,67,69,71,73,75,77,79,81,83,85,87,89,91,93,95,97,99,101,103,105,107,109,111,113,115,117,-1,119,121,123,125,127,129,131,133,135,137,139,141,143,145,147,149,151,153,155,157,159,161,163,165,167,169,171,173,175,177,179,181,183,185,187,189,191,193,195,197,199,201,203,205,207,209,211,213,215,217,219,221,-1,-1,-1,223,225,227,229,-1,231,233,-1,235,-1,237,239,241,243,245,247,249,251,253,255,257,259,261,263,265,267,269,271,273,275,277,279,281,283,285,287,289,291,293,295,297,299,301,303,305,307,309,311,313,-1,315,317,319,321,323,325,-1,-1,327,329,331,333,335,337,339,341,343,345,347,349,351,353,355,357,359,-1,-1,-1,361,363,365,367,369,371,373,-1,375,377,-1,-1,379,381,383,385,387,389,391,393,395,397,399,401,403,-1,405,407,409,-1,411,413,415,417,419,421,423,425,-1,427,-1,-1,-1,-1,-1,-1,-1,-1,-1,-1,-1,-1,-1,-1,-1,-1,-1,-1,-1,-1,-1,-1,-1,-1,-1,-1,-1,-1,-1,-1,-1,-1,-1,-1,-1,-1,-1,-1,-1,-1,-1,-1,-1,-1,-1,-1,-1,-1,-1,-1,-1,-1,-1,-1,-1,-1,-1,-1,-1,-1,-1,-1,-1,-1,-1,-1,-1,-1,-1,-1,-1,-1,-1,-1,-1,-1,-1,-1,-1,-1,-1,-1,-1,-1,-1,-1,-1,-1,-1,-1,-1,-1,-1,-1,-1,-1,-1,-1,-1,-1,-1,-1,-1,-1,-1,-1,-1,-1,-1,-1,-1,-1,-1,-1,-1,-1,-1,-1,-1,-1,-1,-1,-1,-1,-1,-1,-1,-1,-1,-1,-1,-1,-1,-1,-1,-1,-1,-1,-1,-1,-1,-1,-1,-1,-1,-1,-1,-1,-1,-1,-1,-1,-1,-1,-1,-1,-1,-1,-1,-1,-1,-1,-1,-1,-1,-1,-1,-1,-1,-1,-1,-1,-1,-1,-1,-1,-1,-1,-1,-1,-1,-1,-1,-1,-1,-1,-1,-1,-1,-1,-1,-1,-1,-1,-1,-1],"loss_changes":[2.0266268E14,2.2043366E13,6.7902074E13,7.033395E12,1.2126996E13,1.790425E13,1.4854564E13,3.9114753E12,3.1978884E12,2.248731E12,3.107877E12,4.5601983E12,9.637653E12,1.3402194E13,6.2086353E12,1.1506087E12,7.7332106E11,1.2007076E12,7.992802E11,7.7052327E11,6.403601E11,7.4879625E11,7.9052027E11,9.0266455E11,1.466098E12,2.4355715E12,3.1811426E12,2.9726417E12,4.1254922E12,5.6016083E11,2.7884572E12,2.0649083E11,1.2520611E12,5.438935E11,3.531547E11,2.0468623E11,1.4619498E12,5.2818202E11,4.5169823E11,7.458306E11,2.9665814E11,7.219928E11,1.010624E12,6.223309E11,1.3749276E11,4.606723E11,6.236368E11,1.8148701E11,6.8823495E11,8.055706E11,1.4357941E12,1.003827E12,5.1472394E11,9.848918E11,1.6413339E12,9.5696087E11,2.611835E11,1.8629588E12,1.7541586E12,0E0,7.15391E10,4.3298262E12,1.0883039E12,1.9559298E11,1.1788891E11,3.254468E11,3.1744957E11,1.5074977E11,2.6960816E11,1.4426502E11,2.8634107E11,8.56585E10,1.24558246E11,3.2900907E11,3.13692E11,1.158221E11,4.702395E11,2.022074E11,4.9146492E11,1.5837417E11,1.3191802E11,2.796366E11,1.31858964E11,4.0827355E11,2.9293753E11,3.69502E11,6.3960554E11,7.223173E11,3.6467166E11,1.1176808E11,1.1247819E11,2.862207E11,1.7117015E11,3.599663E11,2.2691906E11,1.4989171E11,3.195678E10,3.6983695E11,1.0230673E11,8.684537E11,2.1603718E11,1.0249474E12,1.236585E11,5.8435935E11,8.300821E11,1.06760975E12,2.1315479E11,2.6631062E10,3.3044614E11,4.6073695E11,9.939609E11,8.346518E11,0E0,0E0,0E0,1.5310468E12,8.634305E11,8.427405E11,6.588748E11,0E0,5.792229E10,2.9913042E11,0E0,4.4348555E10,0E0,2.1011576E11,2.541875E11,2.4387912E10,5.2886372E10,2.131449E11,1.01630116E11,1.5319643E11,2.1565312E11,5.7219736E10,4.573646E10,2.0105862E11,1.7920485E11,2.578005E11,6.729243E10,2.4055579E11,1.0314196E11,1.1310714E11,3.843516E10,1.5460729E11,1.5055664E11,9.140043E10,2.2349218E11,1.2401613E11,2.0376768E11,5.7655296E10,1.029595E11,2.3334008E11,2.7648724E11,1.1739909E11,2.9535817E11,1.0062109E11,